
\data\
ngram 1=9262


\1-grams:
-1.4017 </s> -0.4052
-99.0000 <s> -0.5741
-1.8605 a -0.5318
-4.5820 aaron -0.3250
-6.1743 ab -0.0499
-4.4710 abandoned -0.3712
-5.4740 abc -0.0494
-5.5941 aberdeen -0.2638
-4.8414 abilities -0.4797
-4.2029 ability -0.6898
-3.6113 able -0.6884
-5.5296 aboriginal -0.2394
-4.1211 abortion -0.4355
-2.5808 about -0.4794
-3.8769 above -0.6510
-4.8263 abraham -0.3736
-4.4508 abroad -0.5084
-5.1130 abs -0.2595
-4.6783 absence -0.4907
-4.8394 absent -0.3224
-4.5810 absolute -0.2071
-3.7352 absolutely -0.5039
-5.3367 absorption -0.3856
-5.0610 abstract -0.1905
-5.8811 abstracts -0.1914
-4.9945 abu -0.2136
-4.2519 abuse -0.4683
-5.0934 ac -0.1563
-4.7690 academic -0.2474
-5.3281 academics -0.2459
-4.5225 academy -0.4012
-4.7929 accent -0.3832
-4.2054 accept -0.4973
-4.7127 acceptable -0.3399
-4.8187 acceptance -0.6114
-4.3268 accepted -0.4783
-4.7724 accepting -0.4056
-5.0108 accepts -0.4221
-4.0869 access -0.6695
-5.3803 accessed -0.2803
-5.8117 accessibility -0.3353
-5.0153 accessible -0.4137
-5.4356 accessing -0.2800
-5.1476 accessories -0.2984
-5.2113 accessory -0.3375
-4.2934 accident -0.4195
-4.6565 accidents -0.4711
-5.1086 accommodate -0.3094
-5.1144 accommodation -0.3893
-5.2449 accommodations -0.3318
-4.4779 accompanied -0.7114
-5.0299 accompanying -0.2646
-4.7975 accomplish -0.5682
-4.6420 accomplished -0.3923
-5.5445 accordance -0.5828
-3.7888 according -1.8204
-4.7052 accordingly -0.4655
-4.1273 account -0.5295
-5.1491 accountability -0.4494
-4.7716 accounting -0.4307
-4.3946 accounts -0.4438
-5.6689 accreditation -0.3458
-5.5437 accredited -0.1806
-5.0147 accuracy -0.4532
-4.5384 accurate -0.3344
-4.9286 accurately -0.2617
-4.2067 accused -0.4863
-4.7158 ace -0.3461
-6.0628 acer -0.0406
-4.6039 achieve -0.4309
-4.7096 achieved -0.4852
-4.7972 achievement -0.4700
-5.0556 achievements -0.4263
-5.1736 achieving -0.3300
-4.7387 acid -0.2854
-5.4640 acids -0.2501
-4.7625 acknowledge -0.5121
-4.6284 acknowledged -0.4018
-5.4259 acne -0.3233
-5.3487 acoustic -0.2166
-5.0500 acquire -0.2255
-4.7477 acquired -0.3488
-5.0578 acquisition -0.3449
-5.3247 acquisitions -0.2942
-5.2049 acre -0.2467
-4.8331 acres -0.4234
-5.7368 acrobat -0.2019
-3.6240 across -0.8681
-5.6635 acrylic -0.3239
-3.8214 act -0.5975
-4.1779 acting -0.5345
-3.7859 action -0.5387
-4.3416 actions -0.4947
-4.9109 activated -0.4009
-5.5264 activation -0.3565
-4.3428 active -0.2812
-4.9319 actively -0.2620
-4.7750 activists -0.2692
-4.3557 activities -0.5488
-4.2230 activity -0.5444
-4.4250 actor -0.3163
-4.5520 actors -0.3505
-4.6506 actress -0.2814
-4.2917 acts -0.5867
-4.3971 actual -0.0752
-3.4089 actually -0.3694
-4.9611 acute -0.2448
-4.2994 ad -0.3449
-4.9829 ada -0.2106
-4.2607 adam -0.2943
-4.4863 adams -0.3698
-5.2679 adaptation -0.4515
-4.9734 adapted -0.5748
-5.9157 adapter -0.1542
-6.1139 adapters -0.2391
-5.6364 adaptive -0.1832
-6.0946 adaptor -0.0447
-4.1810 add -0.4378
-4.0784 added -0.3928
-4.8900 addiction -0.4410
-4.4731 adding -0.4374
-4.4154 addition -0.4331
-4.3225 additional -0.1932
-5.6623 additionally -0.0620
-5.3620 additions -0.3907
-4.0561 address -0.5159
-4.4496 addressed -0.6078
-4.7806 addresses -0.3981
-4.7136 addressing -0.4831
-4.6314 adds -0.4324
-5.3933 adelaide -0.2777
-4.7927 adequate -0.2585
-5.7887 adidas -0.1893
-5.1143 adjacent -0.3692
-4.9695 adjust -0.5068
-5.4563 adjustable -0.2921
-4.9626 adjusted -0.4237
-5.0135 adjustment -0.3892
-5.1333 adjustments -0.4115
-5.0383 administered -0.4135
-3.7553 administration -0.4437
-4.8898 administrative -0.3423
-4.9857 administrator -0.3742
-5.2755 administrators -0.2708
-4.8159 admission -0.4438
-5.1805 admissions -0.3291
-4.4041 admit -0.5421
-4.3238 admitted -0.5114
-5.6633 adobe -0.1811
-5.1771 adolescent -0.1887
-4.8380 adopt -0.4280
-4.5002 adopted -0.4561
-4.8245 adoption -0.3252
-4.6897 adrian -0.1895
-4.4878 ads -0.4055
-4.5210 adult -0.2228
-4.5249 adults -0.3778
-4.3961 advance -0.4068
-4.3975 advanced -0.3056
-5.2191 advancement -0.4167
-4.8126 advances -0.4774
-4.3454 advantage -0.6310
-4.9507 advantages -0.4911
-4.6047 adventure -0.3669
-4.8600 adventures -0.4806
-5.1505 adverse -0.4619
-5.2686 advertise -0.3271
-5.2315 advertisement -0.3340
-5.2344 advertisements -0.3003
-5.6281 advertiser -0.1613
-5.2150 advertisers -0.2664
-4.4612 advertising -0.3153
-4.2215 advice -0.5503
-4.8812 advise -0.4191
-4.6709 advised -0.4275
-5.1119 advisor -0.3698
-5.3481 advisors -0.2617
-5.1151 advisory -0.4604
-5.2107 advocacy -0.4547
-4.7367 advocate -0.3214
-5.2560 ae -0.2953
-5.0271 aerial -0.3068
-5.3122 aerospace -0.3454
-4.4061 affair -0.4632
-4.2940 affairs -0.4175
-4.3373 affect -0.4892
-4.3604 affected -0.4887
-4.7876 affecting -0.3884
-4.6830 affects -0.4514
-5.1920 affiliate -0.1542
-5.3437 affiliated -0.5128
-5.4298 affiliates -0.2903
-5.4664 affiliation -0.4019
-4.4178 afford -0.4978
-5.0791 affordable -0.3117
-4.9543 afghanistan -0.2954
-4.1576 afraid -0.5960
-4.2814 africa -0.3084
-4.1535 african -0.3908
-3.0015 after -0.6016
-4.1390 afternoon -0.3019
-4.2787 afterwards -0.4559
-5.3580 ag -0.2320
-3.1445 again -0.5978
-3.2862 against -0.4863
-3.8834 age -0.4725
-4.6979 aged -0.3261
-4.4310 agencies -0.4277
-4.1324 agency -0.3631
-4.2469 agenda -0.4503
-3.9725 agent -0.4041
-4.2150 agents -0.4034
-4.6643 ages -0.3747
-5.5072 aggregate -0.1481
-4.5105 aggressive -0.2435
-4.8581 aging -0.1898
-3.5234 ago -0.3200
-3.8317 agree -0.7112
-3.9879 agreed -0.7239
-3.8500 agreement -0.6063
-4.7159 agreements -0.4669
-4.5721 agrees -0.8036
-4.8361 agricultural -0.3132
-4.6845 agriculture -0.3245
-3.9303 ah -0.3752
-3.7315 ahead -0.5340
-4.9276 ai -0.4121
-4.1178 aid -0.4320
-4.1845 aids -0.4179
-4.6311 aim -0.5718
-4.5607 aimed -0.8204
-5.0253 aims -0.5464
-3.6138 air -0.5134
-4.3060 aircraft -0.4111
-5.6880 airfare -0.2534
-4.5801 airline -0.2852
-4.5352 airlines -0.2482
-4.7389 airplane -0.2488
-4.2728 airport -0.3296
-5.0339 airports -0.3726
-4.8711 aka -0.1452
-3.9977 al -0.2630
-5.3041 ala -0.2795
-4.7085 alabama -0.2371
-4.1946 alan -0.3930
-4.5872 alarm -0.4053
-4.8428 alaska -0.2465
-5.3678 albania -0.2647
-5.1454 albany -0.2799
-4.5449 albert -0.2992
-5.5040 alberta -0.3057
-4.5657 album -0.3470
-5.0948 albums -0.3222
-5.2845 albuquerque -0.2887
-4.4232 alcohol -0.4282
-4.4821 alert -0.3434
-5.5228 alerts -0.1858
-4.2741 alex -0.3171
-4.3036 alexander -0.2831
-5.2768 alexandria -0.3322
-4.7540 alfred -0.2974
-5.2223 algebra -0.3137
-5.1457 algeria -0.2566
-5.2924 algorithm -0.2688
-5.4363 algorithms -0.2721
-4.5326 ali -0.2499
-5.0446 alias -0.1482
-4.4411 alice -0.3074
-4.5043 alien -0.2681
-5.5169 align -0.4385
-5.4242 alignment -0.3759
-4.4975 alike -0.3884
-4.0074 alive -0.6789
-2.5728 all -0.5097
-5.0733 allah -0.2757
-4.7641 allan -0.3960
-4.4921 alleged -0.2415
-4.4292 allen -0.2731
-5.2640 allergy -0.3836
-4.5305 alliance -0.3664
-4.7490 allied -0.4174
-5.4238 allocated -0.2703
-5.4799 allocation -0.3890
-4.0165 allow -0.4731
-5.0590 allowance -0.3837
-4.0046 allowed -0.6317
-4.4993 allowing -0.4064
-4.4678 allows -0.4961
-5.3935 alloy -0.3045
-3.5064 almost -0.5218
-3.6859 alone -0.5489
-3.5770 along -0.7141
-5.4001 alot -0.4802
-4.5844 alpha -0.4123
-5.6448 alphabetical -0.4156
-5.2147 alpine -0.3199
-3.4428 already -0.4877
-3.0735 also -0.3806
-5.5630 alt -0.2905
-4.8709 alter -0.4545
-4.7658 altered -0.4042
-4.9073 alternate -0.2615
-4.4433 alternative -0.3363
-5.9482 alternatively -0.0994
-4.9239 alternatives -0.4825
-3.8058 although -0.4053
-5.4748 alto -0.2676
-5.7088 aluminium -0.2826
-5.0892 aluminum -0.2286
-5.2371 alumni -0.2481
-3.3832 always -0.4365
-3.6358 am -0.3212
-4.5459 amanda -0.1235
-4.8484 amateur -0.2404
-4.3446 amazing -0.2565
-5.2045 amazon -0.2636
-4.2745 ambassador -0.3983
-4.7472 amber -0.2520
-5.6181 ambient -0.3428
-5.8350 amd -0.0043
-5.3671 amend -0.5301
-5.1920 amended -0.3294
-4.2475 amendment -0.3862
-5.0531 amendments -0.4062
-5.5017 amenities -0.3144
-3.6722 america -0.4219
-3.3090 american -0.3758
-3.7277 americans -0.4571
-5.5110 americas -0.1471
-5.5429 amino -0.9545
-3.5870 among -0.7529
-4.3096 amongst -0.7671
-4.0474 amount -0.7229
-4.6082 amounts -0.7372
-5.4354 amp -0.2567
-5.6777 amplifier -0.2836
-5.1070 amsterdam -0.2458
-4.3489 amy -0.2841
-2.6827 an -0.9595
-4.8563 ana -0.2984
-5.6383 anaheim -0.2749
-5.1504 anal -0.4019
-5.5754 analog -0.1960
-4.3201 analysis -0.5375
-4.5245 analyst -0.4209
-4.4626 analysts -0.4143
-5.3522 analytical -0.2593
-5.0138 analyze -0.4126
-5.0042 analyzed -0.3989
-5.7273 analyzes -0.2475
-5.1536 anatomy -0.4006
-4.8566 anchor -0.2761
-4.4308 ancient -0.2390
-1.7683 and -0.1125
-4.6113 anderson -0.2965
-6.0646 andorra -0.3055
-4.5014 andrea -0.3999
-5.1944 andreas -0.2588
-4.3084 andrew -0.3004
-4.9826 andrews -0.2750
-4.3020 andy -0.3702
-4.3926 angel -0.2553
-4.5563 angela -0.2693
-3.8522 angeles -0.2029
-4.6516 angels -0.2931
-4.3128 anger -0.4330
-4.5936 angle -0.4650
-5.3728 angola -0.2026
-4.1848 angry -0.3728
-4.2097 animal -0.3442
-4.1876 animals -0.4343
-4.9821 animated -0.2681
-5.1050 animation -0.2485
-4.3982 ann -0.3139
-4.4095 anna -0.1863
-4.3676 anne -0.3930
-5.4596 annex -0.2005
-4.4475 annie -0.3192
-4.5736 anniversary -0.4818
-5.8610 annotated -0.1829
-6.1357 annotation 0.0000
-4.6918 announce -0.5405
-4.0918 announced -0.6843
-4.4802 announcement -0.4854
-5.1726 announcements -0.3754
-5.1415 announces -0.4727
-4.8991 annoying -0.2619
-4.4853 annual -0.2634
-4.9687 annually -0.4408
-4.7382 anonymous -0.2431
-3.2767 another -0.3477
-3.7422 answer -0.6714
-4.1266 answered -0.5401
-4.6013 answering -0.5733
-4.2897 answers -0.5362
-4.9911 ant -0.2612
-5.4533 antarctica -0.2444
-5.2946 antenna -0.2113
-4.4590 anthony -0.3198
-5.4063 anthropology -0.3090
-4.1197 anti -0.3396
-5.4205 antibodies -0.3634
-5.7031 antibody -0.2697
-4.8298 anticipated -0.2453
-5.7055 antigua -0.2144
-4.9924 antique -0.2012
-5.1835 antiques -0.2955
-4.7225 antonio -0.2499
-4.6288 anxiety -0.4357
-3.0022 any -0.4319
-3.8609 anybody -0.6032
-3.7665 anymore -0.7244
-3.7915 anyone -0.5917
-3.4115 anything -0.7383
-4.4980 anytime -0.5785
-3.7462 anyway -0.7044
-3.9962 anywhere -0.8150
-5.7645 aol -0.1505
-5.2857 apache -0.2746
-4.1511 apart -0.6496
-4.2171 apartment -0.4732
-4.7779 apartments -0.3661
-4.8135 apollo -0.4059
-5.3817 app -0.4634
-4.9823 apparatus -0.3652
-5.1729 apparel -0.3200
-4.6734 apparent -0.1678
-3.8681 apparently -0.2988
-4.2925 appeal -0.5767
-4.5823 appeals -0.5309
-4.0882 appear -0.5700
-4.3535 appearance -0.5257
-3.9955 appeared -0.6770
-4.6853 appearing -0.5760
-4.0005 appears -0.6361
-5.3831 appendix -0.2319
-4.5091 apple -0.3425
-5.4748 appliance -0.2176
-5.1697 appliances -0.3196
-5.3157 applicable -0.4482
-5.5469 applicant -0.2407
-5.2412 applicants -0.3051
-4.6290 application -0.5100
-4.7788 applications -0.4693
-4.4877 applied -0.5490
-4.8489 applies -0.6740
-4.4983 apply -0.5642
-4.9193 applying -0.4826
-4.4927 appointed -0.3630
-4.6633 appointment -0.4529
-4.9032 appointments -0.4158
-5.4596 appraisal -0.3056
-4.3734 appreciate -0.6671
-4.9712 appreciated -0.4264
-4.8870 appreciation -0.5978
-4.0932 approach -0.5478
-4.7245 approaches -0.4102
-4.3366 appropriate -0.2983
-5.0482 appropriations -0.5375
-4.4377 approval -0.6203
-4.7644 approve -0.5144
-4.3913 approved -0.4720
-5.3080 approximate -0.2815
-4.4452 approximately -0.8096
-5.7006 apps -0.0549
-4.2296 april -0.5235
-5.1837 apt -0.4509
-5.3264 aqua -0.3796
-5.3319 aquarium -0.2298
-5.4532 aquatic -0.2554
-4.9524 ar -0.2777
-4.4178 arab -0.3402
-4.9682 arabia -0.2422
-5.1326 arabic -0.2542
-5.2057 arbitrary -0.2527
-5.2356 arbitration -0.2898
-5.4304 arbor -0.3562
-5.2336 arc -0.2295
-5.3323 arcade -0.2626
-4.7951 arch -0.3675
-4.9207 architect -0.3249
-5.1530 architects -0.3135
-5.1956 architectural -0.2305
-4.8374 architecture -0.3741
-5.2697 archive -0.2480
-5.0341 archives -0.3592
-5.1680 arctic -0.2850
-2.3840 are -0.6445
-3.6256 area -0.5882
-3.9827 areas -0.6312
-4.7198 arena -0.3856
-5.0838 argentina -0.2545
-4.3854 argue -0.5205
-4.5737 argued -0.5134
-4.1743 argument -0.5293
-4.4454 arguments -0.5000
-4.8721 arise -0.4473
-5.0240 arising -0.5614
-4.5694 arizona -0.2582
-4.5099 arkansas -0.2622
-5.1702 arlington -0.4136
-4.2178 arm -0.3844
-4.1555 armed -0.5494
-5.4372 armenia -0.2687
-4.8967 armor -0.2926
-4.0410 arms -0.4935
-4.9741 armstrong -0.2384
-3.9230 army -0.3701
-4.6015 arnold -0.3633
-3.2146 around -0.6900
-4.9280 arrange -0.4805
-4.5390 arranged -0.5240
-4.6575 arrangement -0.4590
-4.7210 arrangements -0.5052
-4.9057 array -0.5577
-4.2949 arrest -0.4441
-4.2438 arrested -0.5539
-4.6234 arrival -0.4726
-5.4351 arrivals -0.2204
-4.4754 arrive -0.6043
-4.0024 arrived -0.7805
-4.5621 arrives -0.6540
-4.9334 arrow -0.2887
-3.9640 art -0.4144
-5.1305 arthritis -0.3004
-4.3392 arthur -0.2927
-4.4273 article -0.4430
-4.6334 articles -0.4345
-4.7575 artificial -0.2632
-4.4714 artist -0.2419
-4.8415 artistic -0.2452
-4.4992 artists -0.3717
-4.5781 arts -0.3234
-5.3073 artwork -0.2322
-5.8509 aruba -0.1999
-2.4223 as -0.4630
-5.2785 asbestos -0.2457
-6.1356 ascii -0.0282
-4.7102 ash -0.2609
-4.6876 ashley -0.2659
-4.4604 asia -0.3282
-4.4272 asian -0.3455
-4.2144 aside -0.5136
-3.5530 ask -0.6049
-3.5374 asked -0.6138
-3.9497 asking -0.7073
-4.4662 asks -0.5543
-5.8352 asp -0.2537
-4.5119 aspect -0.7396
-4.6617 aspects -0.7253
-4.2645 ass -0.3559
-4.2878 assault -0.5623
-4.8081 assembled -0.3906
-4.5692 assembly -0.3976
-4.9769 assess -0.4137
-5.4668 assessed -0.3527
-5.3757 assessing -0.3259
-4.6912 assessment -0.4848
-5.4153 assessments -0.3639
-4.8311 asset -0.4293
-4.5729 assets -0.4661
-5.2383 assign -0.3744
-4.5743 assigned -0.5627
-4.6525 assignment -0.5133
-4.9940 assignments -0.3760
-4.7691 assist -0.4224
-4.3892 assistance -0.5077
-4.3079 assistant -0.4293
-4.7225 assisted -0.6468
-5.4239 assists -0.3387
-4.6930 associate -0.3827
-4.4486 associated -0.7682
-4.7677 associates -0.3334
-4.1717 association -0.4500
-4.9750 associations -0.3840
-4.3755 assume -0.5429
-4.5905 assumed -0.4971
-4.9520 assumes -0.4861
-4.5875 assuming -0.5748
-4.8276 assumption -0.5096
-5.0506 assumptions -0.4476
-4.9490 assurance -0.4332
-4.8376 assure -0.5632
-4.5714 assured -0.4381
-5.1141 asthma -0.3166
-5.4492 astrology -0.2546
-5.2191 astronomy -0.2619
-4.8102 asylum -0.4502
-2.4539 at -0.5768
-5.7444 ata -0.1255
-4.4779 ate -0.4443
-5.0960 athens -0.2793
-4.6534 athletes -0.3449
-4.8132 athletic -0.3626
-5.3383 athletics -0.2466
-4.2759 atlanta -0.3372
-4.6443 atlantic -0.3283
-5.2988 atlas -0.2408
-5.2868 atm -0.0817
-4.4555 atmosphere -0.4664
-5.1161 atmospheric -0.3357
-5.1729 atom -0.4036
-4.8709 atomic -0.5406
-5.0811 attach -0.4710
-4.3875 attached -0.6824
-5.0030 attachment -0.4740
-5.3477 attachments -0.3682
-3.8457 attack -0.5220
-4.2842 attacked -0.4792
-4.2189 attacks -0.5673
-4.1852 attempt -0.7529
-4.4697 attempted -0.6353
-4.6877 attempting -0.8181
-4.5551 attempts -0.7861
-4.6159 attend -0.4521
-4.9452 attendance -0.3980
-4.5230 attended -0.5038
-4.6794 attending -0.3945
-3.9175 attention -0.6029
-4.2905 attitude -0.5592
-4.8668 attitudes -0.4973
-3.9047 attorney -0.4591
-4.3387 attorneys -0.4015
-4.7890 attract -0.3592
-4.8562 attraction -0.4478
-5.2647 attractions -0.3563
-4.5759 attractive -0.2972
-5.1484 attribute -0.4703
-5.0578 attributes -0.4381
-4.6627 au -0.4674
-5.4293 auburn -0.2803
-5.6756 auckland -0.2721
-4.8047 auction -0.3305
-5.4545 auctions -0.3147
-5.7202 aud -0.0439
-5.5826 audi -0.2091
-4.1937 audience -0.3800
-4.8030 audio -0.3134
-5.1550 audit -0.2732
-5.5419 auditor -0.1702
-5.4627 aug -0.5146
-4.3111 august -0.4919
-5.1159 aurora -0.2933
-5.6400 aus -0.2072
-4.7233 austin -0.2889
-4.6326 australia -0.2962
-4.7161 australian -0.2041
-4.9943 austria -0.2845
-4.9987 authentic -0.1522
-5.7281 authentication -0.2633
-4.3673 author -0.3999
-4.2053 authorities -0.4408
-4.2073 authority -0.4955
-5.0569 authorization -0.5342
-4.7796 authorized -0.4098
-4.9442 authors -0.3283
-4.4762 auto -0.4518
-5.3465 automated -0.2064
-4.7062 automatic -0.3056
-4.7272 automatically -0.1586
-5.7265 automation -0.1371
-4.8912 automobile -0.2836
-5.1833 automobiles -0.3009
-5.3435 automotive -0.1950
-5.5447 autos -0.2547
-5.0002 autumn -0.2571
-5.2706 availability -0.5493
-4.0220 available -0.5467
-5.1722 avatar -0.5123
-5.0070 ave -0.3382
-4.4052 avenue -0.3923
-4.1512 average -0.2921
-5.5243 avi -0.0816
-4.9146 aviation -0.3313
-4.3264 avoid -0.2971
-4.8241 avoiding -0.2984
-4.9779 avon -0.2771
-4.5706 aw -0.2800
-4.4594 award -0.4892
-4.9953 awarded -0.3819
-4.6376 awards -0.4010
-4.2439 aware -0.6926
-4.8717 awareness -0.5268
-3.3732 away -0.6937
-4.6060 awesome -0.2411
-4.3888 awful -0.3131
-5.3142 axis -0.2625
-4.4517 aye -0.4991
-5.5524 azerbaijan -0.2699
-5.0025 b -0.3268
-4.3921 babe -0.4769
-5.0161 babes -0.3902
-4.3463 babies -0.4873
-3.7339 baby -0.4342
-4.8930 bachelor -0.3964
-2.9219 back -0.7964
-4.4503 backed -0.7099
-4.3463 background -0.4776
-5.1616 backgrounds -0.4256
-4.6388 backing -0.6021
-4.7806 backup -0.2438
-4.7321 bacon -0.2972
-4.8069 bacteria -0.3847
-5.2744 bacterial -0.4303
-3.6410 bad -0.4245
-4.8666 badge -0.3841
-4.4060 badly -0.4679
-4.1748 bag -0.4976
-4.5770 baghdad -0.3113
-4.4566 bags -0.4682
-5.5396 bahamas -0.1793
-5.6015 bahrain -0.2077
-4.4985 bailey -0.2985
-4.5433 baker -0.2885
-4.9677 baking -0.3764
-4.2132 balance -0.5261
-4.3101 balanced -0.5309
-4.8283 bald -0.4542
-5.4049 bali -0.2294
-4.1298 ball -0.4260
-4.8409 ballet -0.3210
-4.7916 balloon -0.2931
-4.7523 ballot -0.3580
-4.4462 balls -0.4315
-4.7548 baltimore -0.2722
-4.3463 ban -0.3716
-4.8177 banana -0.3553
-4.2329 band -0.3693
-4.6066 bands -0.4231
-5.6273 bandwidth -0.1990
-4.6248 bang -0.4094
-5.0738 bangkok -0.2352
-5.4378 bangladesh -0.1824
-3.8651 bank -0.3999
-4.5721 banking -0.4300
-4.8893 bankruptcy -0.3528
-4.1864 banks -0.3937
-4.7354 banned -0.4056
-4.8920 banner -0.3263
-5.2107 banners -0.3063
-5.0851 baptist -0.3323
-4.1435 bar -0.3193
-5.5954 barbados -0.1371
-4.3901 barbara -0.3032
-4.9516 barbie -0.2962
-5.2505 barcelona -0.2483
-4.6930 bare -0.3680
-4.4040 barely -0.3609
-4.7786 bargain -0.3646
-5.2551 bargains -0.3400
-4.8919 barn -0.2628
-4.8215 barnes -0.3167
-4.8601 barrel -0.3020
-4.8884 barrier -0.3947
-4.8455 barriers -0.4250
-4.3012 barry -0.3826
-4.5433 bars -0.3700
-4.0691 base -0.3808
-4.2206 baseball -0.4480
-3.8081 based -0.7664
-5.4715 baseline -0.1825
-4.8297 basement -0.2825
-4.6914 bases -0.4352
-4.2930 basic -0.2849
-3.9580 basically -0.2176
-5.2654 basics -0.2598
-5.1339 basin -0.3189
-4.2256 basis -0.6284
-4.7814 basket -0.3549
-4.4532 basketball -0.4188
-5.1300 baskets -0.3442
-4.8130 bass -0.3008
-4.6848 bat -0.2718
-5.1565 batch -0.4361
-4.6821 bath -0.3170
-4.6757 bathroom -0.3174
-5.2586 bathrooms -0.3189
-5.1053 baths -0.3622
-4.8963 batman -0.3285
-4.8052 batteries -0.3692
-4.7129 battery -0.3398
-4.0313 battle -0.4878
-5.0995 battlefield -0.2376
-4.2895 bay -0.3749
-5.4789 bbc -0.0211
-2.4362 be -0.4866
-4.2986 beach -0.3243
-4.9663 beaches -0.3655
-5.0900 beads -0.3560
-4.7229 beam -0.3199
-4.8989 bean -0.3045
-4.7693 beans -0.3473
-4.1948 bear -0.4131
-4.3943 bearing -0.4659
-4.4992 bears -0.3633
-4.6530 beast -0.2933
-4.0175 beat -0.4945
-5.2074 beatles -0.1609
-4.6486 beats -0.3496
-4.0551 beautiful -0.2471
-4.8052 beautifully -0.3047
-4.2568 beauty -0.4549
-4.9514 beaver -0.2601
-3.7517 became -0.4825
-2.8417 because -0.8142
-3.6873 become -0.4048
-4.0400 becomes -0.4091
-4.2489 becoming -0.3772
-4.2043 bed -0.3764
-5.3343 bedding -0.2275
-5.2321 bedford -0.2874
-4.5602 bedroom -0.3950
-5.2299 bedrooms -0.3141
-4.7228 beds -0.4185
-4.7647 bee -0.2309
-4.5669 beef -0.3803
-2.7865 been -0.5464
-4.3895 beer -0.3670
-3.0457 before -0.7259
-3.6934 began -0.6445
-3.9071 begin -0.5637
-5.7800 beginner -0.1295
-5.6101 beginners -0.2401
-3.9264 beginning -0.5794
-4.1719 begins -0.7308
-4.4841 begun -0.4064
-4.6563 behalf -0.5304
-4.2132 behavior -0.5583
-5.2226 behavioral -0.3475
-3.5562 behind -0.6949
-4.7450 beijing -0.2265
-3.1171 being -0.6389
-4.6255 beings -0.3788
-5.4569 belarus -0.1646
-5.1540 belfast -0.2135
-5.0639 belgium -0.2591
-4.5116 belief -0.5992
-4.7923 beliefs -0.4449
-3.4054 believe -0.5744
-4.1278 believed -0.6947
-4.1542 believes -0.6245
-5.7310 belize -0.2126
-6.0678 belkin -0.1569
-4.3410 bell -0.3531
-4.8590 belle -0.3336
-4.8096 belly -0.3720
-4.4427 belong -0.8125
-4.3444 belongs -1.0216
-4.0597 below -0.6302
-4.6224 belt -0.3226
-5.0228 belts -0.2946
-4.1215 ben -0.2816
-4.7474 bench -0.3461
-5.4612 benchmark -0.2974
-4.7356 bend -0.4769
-4.2285 beneath -0.8523
-5.1215 beneficial -0.3993
-4.2774 benefit -0.5344
-4.2180 benefits -0.5281
-4.5451 benjamin -0.4338
-4.6429 bennett -0.2760
-4.4743 bent -0.5210
-5.4212 benz -0.1656
-5.0473 berkeley -0.2799
-4.6849 berlin -0.2683
-5.3568 bermuda -0.2179
-4.5601 bernard -0.3916
-4.9333 berry -0.2365
-4.3317 beside -0.6749
-4.1452 besides -0.2587
-3.5476 best -0.2789
-5.7594 bestiality -0.3288
-5.9056 bestsellers -0.1916
-4.3440 bet -0.4582
-4.9873 beta -0.3271
-4.6398 beth -0.2807
-3.4438 better -0.4528
-4.8749 betting -0.3575
-4.4662 betty -0.3165
-3.3420 between -0.4058
-5.1538 beverage -0.2926
-5.3271 beverages -0.2980
-4.7002 beverly -0.4433
-3.8608 beyond -0.5430
-5.9008 bhutan -0.1857
-5.0393 bi -0.3741
-4.8522 bias -0.4208
-4.6678 bible -0.2971
-5.1223 biblical -0.2237
-5.8906 bibliography -0.1904
-4.9896 bicycle -0.2334
-4.4700 bid -0.5069
-5.4699 bidder -0.2380
-4.7912 bidding -0.4772
-4.9576 bids -0.4271
-3.3818 big -0.3342
-4.2647 bigger -0.2701
-4.1392 biggest -0.1699
-4.7520 bike -0.2767
-5.1831 bikes -0.2908
-5.1541 bikini -0.2981
-3.3814 bill -0.5459
-5.0092 billing -0.3515
-3.7933 billion -0.5924
-4.3078 bills -0.4531
-4.2106 billy -0.3874
-4.8168 bin -0.2253
-5.4626 binary -0.2715
-5.0891 bind -0.4163
-4.9451 binding -0.3241
-4.7744 bingo -0.3345
-5.1170 bio -0.2343
-5.6685 biodiversity -0.3563
-5.4520 biographies -0.4093
-5.0550 biography -0.4192
-4.5399 biological -0.4613
-4.9382 biology -0.3412
-5.7801 bios -0.2213
-5.6734 biotechnology -0.2242
-4.3043 bird -0.3155
-4.3721 birds -0.3949
-5.1669 birmingham -0.2510
-4.3185 birth -0.5223
-4.3235 birthday -0.4687
-4.5254 bishop -0.2712
-3.6622 bit -0.4285
-4.2338 bitch -0.3951
-4.5365 bite -0.4819
-4.6055 bits -0.6894
-5.2724 biz -0.2147
-4.8640 bizarre -0.1561
-3.5647 black -0.4223
-5.4938 blackberry -0.2127
-5.3397 blackjack -0.3506
-4.4309 blacks -0.3652
-4.7202 blade -0.3318
-5.0962 blades -0.2696
-4.8100 blah -0.6175
-4.6737 blair -0.3131
-4.5807 blake -0.3148
-4.3406 blame -0.4490
-4.7142 blank -0.3060
-4.7774 blanket -0.3012
-4.5734 blast -0.3931
-4.5633 bleeding -0.3727
-4.8969 blend -0.4955
-4.6814 bless -0.7281
-4.7484 blessed -0.3860
-4.3758 blind -0.3613
-5.0949 blink -0.3783
-4.2561 block -0.3948
-4.6597 blocked -0.5118
-4.8023 blocking -0.4401
-4.5934 blocks -0.4740
-5.1623 blog -0.0354
-5.6589 blogger -0.0328
-5.7241 bloggers -0.0367
-5.7658 blogging -0.0560
-5.5271 blogs -0.0441
-4.9264 blond -0.3225
-4.8092 blonde -0.3042
-3.6325 blood -0.6115
-4.2603 bloody -0.2678
-4.8093 bloom -0.3203
-5.7224 bloomberg -0.1866
-4.2282 blow -0.6692
-4.5702 blowing -0.5848
-5.6028 blowjob -0.0293
-3.9804 blue -0.3954
-4.7859 blues -0.2969
-6.0180 blvd -0.1165
-5.3700 bmw -0.0221
-4.6468 bo -0.2974
-3.9321 board -0.3912
-4.6774 boards -0.3593
-4.2776 boat -0.3349
-5.4151 boating -0.2676
-4.5478 boats -0.3392
-3.5796 bob -0.5380
-4.3034 bobby -0.3670
-4.2128 bodies -0.4694
-3.7850 body -0.4495
-4.6714 bold -0.2865
-5.4611 bolivia -0.2288
-4.8768 bolt -0.3374
-4.1738 bomb -0.4186
-4.9610 bon -0.3774
-4.2354 bond -0.4637
-5.2584 bondage -0.3020
-4.5039 bonds -0.3945
-4.4141 bone -0.3879
-4.3737 bones -0.3960
-4.9269 bonus -0.3260
-5.1885 boob -0.2971
-4.9832 boobs -0.2199
-3.6602 book -0.4643
-5.1375 booking -0.2330
-5.6015 bookings -0.2234
-4.0226 books -0.5044
-5.3379 bookstore -0.2579
-4.4794 boom -0.3937
-4.6991 boost -0.3576
-4.7450 boot -0.4069
-4.5314 booth -0.3277
-4.5575 boots -0.3863
-5.0182 booty -0.2711
-4.2273 border -0.4168
-4.6784 borders -0.3814
-4.8275 bored -0.4041
-4.6064 boring -0.2859
-4.0677 born -0.4646
-5.3533 borough -0.3189
-3.8994 bosnia -0.3603
-4.1358 boss -0.3432
-4.3647 boston -0.2960
-3.3027 both -0.3026
-4.6955 bother -0.4500
-5.7439 botswana -0.1768
-4.5599 bottle -0.4086
-4.7459 bottles -0.4191
-4.2159 bottom -0.4733
-4.1064 bought -0.5729
-5.3185 boulder -0.2765
-4.9974 boulevard -0.2942
-4.3715 bound -0.5879
-4.8930 boundaries -0.4435
-5.1272 boundary -0.3456
-5.1833 bouquet -0.4201
-5.3920 boutique -0.2175
-4.5991 bow -0.4671
-4.5313 bowl -0.3608
-4.8432 bowling -0.4418
-4.0586 box -0.5004
-5.2420 boxed -0.4884
-4.5405 boxes -0.4295
-4.7738 boxing -0.3195
-3.7578 boy -0.4130
-3.8961 boys -0.4505
-5.0038 bra -0.3119
-5.0581 bracelet -0.3468
-5.1897 bracelets -0.3380
-5.3743 bracket -0.1969
-4.5954 brad -0.3057
-5.2102 bradford -0.2115
-4.7312 bradley -0.2662
-4.1169 brain -0.4174
-4.9464 brake -0.3553
-5.0753 brakes -0.2967
-4.4368 branch -0.4555
-4.7237 branches -0.4303
-4.4537 brand -0.4803
-4.6256 brandon -0.2854
-5.0557 brands -0.3410
-5.2594 bras -0.3596
-4.7654 brass -0.2233
-4.5530 brave -0.3306
-4.8060 brazil -0.2582
-5.0972 brazilian -0.1473
-4.8895 breach -0.4711
-4.4782 bread -0.3975
-3.7609 break -0.6867
-4.9413 breakdown -0.4436
-4.3946 breakfast -0.3991
-4.2189 breaking -0.6497
-4.3534 breaks -0.6206
-4.4009 breast -0.5586
-4.8117 breasts -0.3622
-4.4823 breath -0.3609
-4.4884 breathing -0.3689
-4.8036 breed -0.3148
-4.8831 breeding -0.3194
-5.0910 breeds -0.1992
-4.1048 brian -0.4448
-4.6241 brick -0.3302
-5.2557 bridal -0.3571
-4.7436 bride -0.2807
-4.2954 bridge -0.3656
-4.7453 bridges -0.3514
-4.4252 brief -0.2557
-4.7229 briefing -0.4010
-4.4898 briefly -0.3714
-5.2628 briefs -0.3709
-4.2987 bright -0.3908
-5.1790 brighton -0.3333
-4.4003 brilliant -0.1941
-3.6298 bring -0.5767
-4.1103 bringing -0.5467
-4.1846 brings -0.6620
-5.6911 brisbane -0.2002
-5.2340 bristol -0.3490
-4.4138 britain -0.3068
-5.9717 britannica -0.1568
-4.0232 british -0.3067
-5.1436 britney -0.0560
-4.4104 broad -0.2890
-5.7412 broadband -0.2027
-4.4359 broadcast -0.3998
-4.7677 broadcasting -0.2743
-4.8680 broader -0.2245
-4.6585 broadway -0.3219
-5.4066 brochure -0.1997
-5.4184 brochures -0.2882
-3.9131 broke -0.8225
-4.1357 broken -0.4431
-4.9444 broker -0.2984
-5.0738 brokers -0.2734
-4.8740 bronze -0.3298
-5.0459 brook -0.2372
-4.7253 brooklyn -0.2688
-4.6844 brooks -0.3465
-3.8933 brother -0.3059
-4.1741 brothers -0.3439
-3.6444 brought -0.6772
-3.8424 brown -0.3711
-5.6035 browse -0.3373
-5.5947 browser -0.2438
-6.0311 browsers -0.1228
-5.4970 browsing -0.3873
-4.3728 bruce -0.3927
-5.8596 brunei -0.1912
-5.2593 brunette -0.2977
-5.6286 brunswick -0.2849
-4.6641 brush -0.4128
-5.0063 brussels -0.2939
-4.6941 brutal -0.2354
-4.9315 bryan -0.2467
-5.0568 bryant -0.2587
-5.7518 bt -0.0683
-4.8143 bubble -0.4056
-4.4831 buck -0.3375
-4.8340 bucks -0.3501
-5.5008 budapest -0.1694
-4.1682 buddy -0.3507
-3.6920 budget -0.4982
-4.9737 budgets -0.3786
-4.6988 buffalo -0.2983
-5.2421 buffer -0.3850
-4.6074 bug -0.3041
-4.7184 bugs -0.4089
-4.1239 build -0.5351
-5.2005 builder -0.2519
-5.1312 builders -0.2597
-3.7827 building -0.4729
-4.3300 buildings -0.4386
-4.9583 builds -0.3778
-4.0246 built -0.6495
-5.3315 bulgaria -0.2271
-5.4932 bulgarian -0.1014
-4.9236 bulk -0.4464
-4.5551 bull -0.3468
-4.5217 bullet -0.4411
-5.1505 bulletin -0.4187
-5.0765 bumper -0.4651
-4.4702 bunch -0.6112
-5.1001 bundle -0.3784
-4.7352 bunny -0.2950
-4.5007 burden -0.4932
-4.3797 bureau -0.4122
-4.3500 buried -0.5977
-4.7418 burke -0.2799
-5.5659 burlington -0.3113
-4.3342 burn -0.4930
-5.2654 burner -0.3294
-4.3176 burning -0.3720
-4.4654 burns -0.3316
-4.4253 burst -0.6912
-4.8620 burton -0.2834
-4.2992 bus -0.3873
-4.8668 buses -0.3007
-3.8127 bush -0.3754
-3.4042 business -0.5695
-4.2772 businesses -0.4480
-4.3015 busy -0.3067
-2.3974 but -0.6688
-4.6983 butler -0.3327
-4.5434 butt -0.4023
-4.6754 butter -0.2992
-4.9887 butterfly -0.2138
-4.5856 button -0.3706
-4.7945 buttons -0.3914
-5.0960 butts -0.2459
-3.8999 buy -0.4792
-4.9669 buyer -0.3029
-4.8081 buyers -0.3388
-4.2458 buying -0.4071
-4.7468 buys -0.3528
-4.6595 buzz -0.4324
-2.6151 by -0.4154
-4.2248 bye -0.4527
-5.8071 byte -0.0952
-5.7562 bytes -0.2655
-4.3184 c -0.3496
-4.9283 ca -0.2086
-4.7851 cab -0.3094
-4.6743 cabin -0.3151
-4.3929 cabinet -0.4265
-5.3290 cabinets -0.2754
-4.3153 cable -0.4351
-5.1099 cables -0.2956
-5.3972 cache -0.3682
-5.5332 cad -0.2331
-5.2666 cadillac -0.1729
-4.8574 cafe -0.2785
-4.8037 cage -0.2719
-4.4914 cake -0.3778
-4.8698 cakes -0.3626
-4.6742 cal -0.3686
-5.1778 calcium -0.3472
-5.2406 calculate -0.3436
-4.8387 calculated -0.3926
-5.1278 calculation -0.3409
-4.9871 calculations -0.3689
-5.5061 calculator -0.2483
-5.7773 calculators -0.2072
-4.8165 calendar -0.3124
-5.4218 calendars -0.2578
-5.6412 calgary -0.2405
-5.7574 calibration -0.1593
-3.7677 california -0.3099
-3.4169 call -0.4280
-3.2838 called -0.1459
-3.8999 calling -0.5751
-3.7465 calls -0.5901
-4.1404 calm -0.4606
-4.8383 calvin -0.3600
-4.7365 cam -0.2532
-5.0620 cambodia -0.1997
-5.1085 cambridge -0.2892
-5.7469 camcorder -0.1623
-5.9964 camcorders -0.2861
-3.2500 came -1.0706
-5.0273 camel -0.2721
-4.2374 camera -0.3686
-4.4184 cameras -0.4454
-4.7813 cameron -0.2853
-5.8133 cameroon -0.1612
-4.1427 camp -0.3816
-3.6642 campaign -0.5124
-4.6733 campaigns -0.4088
-4.6782 campbell -0.2667
-4.9077 camping -0.4258
-4.6086 camps -0.4264
-4.7835 campus -0.2416
-2.7483 can -1.0240
-4.3778 canada -0.3226
-4.5378 canadian -0.2068
-4.9427 canal -0.2701
-6.0339 canberra -0.1975
-4.8114 cancel -0.4925
-5.4543 cancellation -0.3372
-5.0538 cancelled -0.3328
-4.1187 cancer -0.4787
-4.1023 candidate -0.4480
-4.1710 candidates -0.4550
-4.9747 candle -0.3179
-4.8331 candles -0.3968
-4.3975 candy -0.4661
-4.8233 cannon -0.2760
-5.1730 canon -0.3051
-5.2893 cant -0.1601
-4.9686 canvas -0.2524
-4.9082 canyon -0.2631
-4.3359 cap -0.4212
-4.9564 capabilities -0.5401
-4.8667 capability -0.5555
-4.4103 capable -0.6645
-4.4678 capacity -0.5886
-4.7702 cape -0.3770
-3.9882 capital -0.4643
-4.2059 capitol -0.4729
-4.8338 caps -0.3647
-3.8217 captain -0.3160
-4.6546 capture -0.3779
-4.4963 captured -0.4356
-3.7107 car -0.4696
-4.7491 carbon -0.5786
-4.1398 card -0.4362
-5.0539 cardiac -0.4467
-5.4975 cardiff -0.2393
-5.5385 cardiovascular -0.3253
-4.3574 cards -0.4203
-3.5052 care -0.5799
-4.0892 career -0.4435
-4.8848 careers -0.3955
-4.3102 careful -0.3592
-4.2649 carefully -0.3694
-5.1341 carey -0.1763
-4.6147 cargo -0.4327
-4.9587 caribbean -0.2296
-4.7435 caring -0.4677
-4.2519 carl -0.4070
-5.0662 carlo -0.1862
-4.5310 carlos -0.2469
-4.8091 carmen -0.2313
-5.0531 carnival -0.2239
-4.4715 carol -0.3042
-4.3618 carolina -0.1998
-4.6265 caroline -0.2410
-4.7767 carpet -0.3200
-4.1254 carried -0.6961
-4.7040 carrier -0.3187
-4.8535 carriers -0.3249
-4.5628 carries -0.5631
-5.2215 carroll -0.2848
-4.1157 carry -0.5584
-4.1848 carrying -0.5002
-4.0740 cars -0.4837
-4.7696 cart -0.3109
-4.2082 carter -0.3526
-4.9545 cartoon -0.2762
-5.1036 cartoons -0.3733
-5.3913 cartridge -0.3360
-5.3779 cartridges -0.2775
-5.4116 cas -0.2047
-5.2631 casa -0.3555
-3.2556 case -0.5727
-3.8734 cases -0.4952
-4.4897 casey -0.3689
-4.1557 cash -0.4683
-5.8904 cashiers -0.1728
-4.7381 casino -0.2750
-5.0783 casinos -0.3008
-5.9339 casio -0.3642
-5.3552 cassette -0.3758
-4.2143 cast -0.5605
-4.7283 casting -0.4218
-4.4613 castle -0.3327
-4.8559 casual -0.2537
-4.3058 cat -0.2763
-5.0917 catalog -0.3102
-5.5239 catalogs -0.2249
-5.0470 catalogue -0.2999
-5.4412 catalyst -0.3406
-4.2345 catch -0.5433
-5.0824 categories -0.3609
-4.6899 category -0.4570
-5.1402 catering -0.4557
-4.9908 cathedral -0.2951
-4.4795 catherine -0.3521
-4.4049 catholic -0.3561
-4.5764 cats -0.3547
-4.5998 cattle -0.3152
-3.9776 caught -0.6494
-3.9007 cause -0.5144
-4.0555 caused -0.6490
-4.3725 causes -0.3664
-4.4383 causing -0.4534
-4.7833 caution -0.3691
-4.6884 cave -0.3299
-5.5841 cayman -0.4532
-5.6322 cbs -0.0392
-5.1941 cc -0.2332
-4.9554 cd -0.2217
-5.1940 cedar -0.4243
-4.7734 ceiling -0.3172
-4.7219 celebrate -0.3835
-4.7078 celebration -0.4239
-4.8426 celebrities -0.3606
-4.6442 celebrity -0.2277
-6.2756 celebs -0.0488
-4.2413 cell -0.4514
-4.4897 cells -0.3998
-4.8671 cellular -0.4676
-5.3155 celtic -0.1628
-4.9878 cement -0.2061
-4.8223 cemetery -0.3388
-5.2545 census -0.3364
-4.6161 cent -0.2837
-3.8132 center -0.4943
-5.0793 centered -0.4935
-4.5663 centers -0.5161
-4.0555 central -0.4492
-4.6815 centre -0.3391
-5.2330 centres -0.4044
-4.4044 cents -0.4795
-4.6921 centuries -0.4251
-4.2234 century -0.2288
-5.1095 ceo -0.0524
-5.3630 ceramic -0.1719
-4.4499 ceremony -0.4428
-3.7945 certain -0.2323
-3.5986 certainly -0.3815
-5.0349 certificate -0.3470
-5.2006 certificates -0.3689
-5.3568 certification -0.3105
-5.0523 certified -0.3018
-4.8242 chad -0.2534
-4.4174 chain -0.4384
-4.8553 chains -0.3061
-4.3640 chair -0.3486
-4.0059 chairman -0.4890
-4.6843 chairs -0.3925
-4.2053 challenge -0.4919
-4.7126 challenged -0.4267
-4.6274 challenges -0.4813
-4.7992 challenging -0.2673
-4.4817 chamber -0.4378
-4.6385 chambers -0.3843
-4.6661 champagne -0.3391
-4.4542 champion -0.3017
-4.9054 champions -0.3854
-4.7417 championship -0.3821
-4.9577 championships -0.4409
-5.0288 chan -0.2455
-3.8853 chance -0.5496
-4.8867 chancellor -0.3899
-4.4789 chances -0.5945
-3.5770 change -0.6569
-3.8709 changed -0.6868
-3.9884 changes -0.6748
-4.2239 changing -0.4701
-4.4165 channel -0.3911
-4.7051 channels -0.4247
-4.5967 chaos -0.4397
-4.8759 chapel -0.3223
-4.5104 chapter -0.5361
-5.1192 chapters -0.3522
-5.2746 char -0.2624
-4.0059 character -0.4687
-4.9369 characteristic -0.3006
-4.7941 characteristics -0.5281
-5.4035 characterization -0.5509
-5.0367 characterized -0.5671
-4.4496 characters -0.3988
-4.0125 charge -0.5012
-4.1935 charged -0.5837
-5.4525 charger -0.2268
-5.5932 chargers -0.1827
-4.0333 charges -0.5812
-4.7343 charging -0.3123
-4.9772 charitable -0.3932
-4.5313 charity -0.3080
-3.9929 charles -0.3732
-5.1294 charleston -0.3037
-4.0395 charlie -0.4320
-4.5276 charlotte -0.2936
-4.6461 charm -0.4116
-4.6522 charming -0.2139
-5.0393 charms -0.3522
-4.6776 chart -0.3672
-4.8791 charter -0.3594
-4.7995 charts -0.3710
-4.4213 chase -0.3424
-5.5484 chassis -0.2867
-4.7167 chat -0.4326
-4.4367 cheap -0.2583
-4.7586 cheaper -0.3915
-5.5519 cheapest -0.1112
-4.9170 cheat -0.4071
-5.2889 cheats -0.4282
-3.8241 check -0.6349
-4.3461 checked -0.6473
-4.4779 checking -0.5660
-5.4529 checklist -0.2988
-5.5652 checkout -0.3296
-4.4134 checks -0.5160
-4.5952 cheers -0.3856
-4.5025 cheese -0.3102
-4.6839 chef -0.2430
-4.9016 chelsea -0.2455
-5.4457 chem -0.5046
-4.3741 chemical -0.4068
-4.6688 chemicals -0.4005
-4.7973 chemistry -0.4014
-4.9722 chen -0.2392
-5.3475 cheque -0.0370
-4.7640 cherry -0.4112
-4.8045 chess -0.3895
-4.4995 chest -0.3746
-4.8908 chester -0.2856
-5.6149 chevrolet -0.2488
-5.2399 chevy -0.4004
-4.9109 chi -0.3092
-4.0910 chicago -0.2909
-4.6023 chick -0.3089
-4.3100 chicken -0.3692
-4.7520 chicks -0.3389
-3.7492 chief -0.4168
-3.7367 child -0.4846
-4.5888 childhood -0.3267
-3.4487 children -0.5716
-5.6052 childrens -0.2434
-5.0785 chile -0.2392
-4.0321 china -0.3621
-4.1027 chinese -0.2577
-4.4912 chip -0.3596
-4.5852 chips -0.3691
-5.0819 cho -0.2037
-4.5312 chocolate -0.3081
-4.0159 choice -0.4471
-4.5143 choices -0.4777
-4.9809 choir -0.2889
-5.0460 cholesterol -0.2974
-4.2631 choose -0.4938
-4.7693 choosing -0.4227
-4.9567 chorus -0.3546
-4.3428 chose -0.4719
-4.5178 chosen -0.3899
-4.1781 chris -0.3519
-4.5197 christ -0.2901
-4.1919 christian -0.3348
-4.9592 christianity -0.3489
-4.7859 christians -0.3174
-4.7648 christina -0.2069
-4.6857 christine -0.3496
-4.0953 christmas -0.4585
-4.2789 christopher -0.3485
-5.4401 chrome -0.2409
-4.9566 chronic -0.2963
-5.1745 chronicle -0.2573
-5.3618 chronicles -0.2919
-4.9936 chrysler -0.2066
-5.1891 chubby -0.2478
-4.3237 chuck -0.3281
-3.9759 church -0.3484
-4.6259 churches -0.3470
-4.8408 cia -0.0313
-6.3104 ciao -0.0587
-4.6194 cigarette -0.3869
-4.5368 cigarettes -0.4360
-5.0718 cincinnati -0.2194
-4.7855 cindy -0.2533
-5.0418 cinema -0.1956
-4.4423 circle -0.4128
-4.6981 circles -0.4083
-4.6454 circuit -0.4050
-5.0753 circuits -0.3037
-5.0170 circular -0.1636
-5.0032 circulation -0.3009
-4.3210 circumstances -0.4377
-4.7100 circus -0.2678
-5.6330 cisco -0.3335
-5.4550 citation -0.2683
-5.4613 citations -0.3115
-5.1475 cite -0.2634
-4.8446 cited -0.2996
-4.1722 cities -0.4337
-4.4536 citizen -0.3493
-4.1935 citizens -0.4377
-5.0432 citizenship -0.3661
-3.4822 city -0.3895
-5.0399 civic -0.3588
-4.0173 civil -0.7120
-4.5097 civilian -0.2934
-4.6925 civilization -0.3666
-4.1732 claim -0.5316
-4.3651 claimed -0.6107
-4.1310 claims -0.5460
-4.3781 claire -0.4514
-4.8657 clan -0.3207
-4.8118 clara -0.2885
-5.0704 clarity -0.4850
-4.0395 clark -0.4693
-5.0096 clarke -0.2361
-3.8667 class -0.3809
-4.4723 classes -0.4588
-4.4654 classic -0.1408
-4.8638 classical -0.2970
-5.1624 classics -0.2864
-5.3205 classification -0.3250
-4.7747 classified -0.4267
-4.9102 classroom -0.2493
-4.9606 clause -0.3994
-4.5109 clay -0.2712
-4.0133 clean -0.4748
-4.9488 cleaner -0.2625
-5.3208 cleaners -0.2265
-4.5154 cleaning -0.5017
-5.1223 cleanup -0.3194
-3.6754 clear -0.5257
-4.9657 clearance -0.3930
-4.4505 cleared -0.6391
-4.7879 clearing -0.4330
-3.8913 clearly -0.3456
-4.7213 clerk -0.3170
-4.6675 cleveland -0.2694
-4.8892 click -0.4852
-5.2767 clicking -0.3449
-5.3451 clicks -0.2999
-4.3921 client -0.2930
-4.4382 clients -0.3893
-4.7180 cliff -0.2686
-4.6324 climate -0.4124
-4.6696 climb -0.5703
-4.6777 climbing -0.4286
-4.5470 clinic -0.3582
-4.8808 clinical -0.3818
-4.8838 clinics -0.3661
-3.2918 clinton -0.3995
-4.8618 clip -0.4296
-5.1140 clips -0.3194
-4.5492 clock -0.3041
-5.1357 clocks -0.2803
-5.1316 clone -0.2684
-3.6527 close -0.7099
-4.0180 closed -0.5937
-4.4108 closely -0.5030
-4.2512 closer -0.6499
-4.8450 closes -0.5243
-4.7932 closest -0.3508
-4.2941 closing -0.5928
-4.9094 closure -0.4647
-4.7763 cloth -0.3364
-4.1666 clothes -0.4621
-4.4272 clothing -0.3724
-4.5709 cloud -0.3884
-4.6201 clouds -0.3651
-5.1806 cloudy -0.2751
-4.0578 club -0.3494
-4.5878 clubs -0.3731
-5.0134 cluster -0.5011
-5.1875 clusters -0.4576
-5.3350 cnn -0.4198
-4.2658 co -0.5641
-4.2154 coach -0.3225
-4.9048 coaches -0.2306
-5.0351 coaching -0.2537
-4.6970 coal -0.4067
-4.4170 coalition -0.3812
-4.2712 coast -0.3569
-5.1126 coastal -0.3234
-4.5416 coat -0.3747
-5.2983 coated -0.3371
-5.3537 coating -0.3695
-4.7257 cock -0.3379
-5.2339 cocks -0.2754
-4.8076 cocktail -0.4257
-5.0706 cod -0.3036
-4.1543 code -0.5095
-4.7497 codes -0.4216
-5.4583 coding -0.2235
-4.2061 coffee -0.3966
-5.3138 cognitive -0.3532
-4.8185 cohen -0.2999
-4.7861 coin -0.3573
-4.9488 coins -0.3318
-3.9771 cold -0.4423
-4.5864 cole -0.3486
-4.9481 coleman -0.2397
-4.3794 colin -0.5165
-5.2748 collaboration -0.4494
-5.7527 collaborative -0.1954
-4.5912 collapse -0.5881
-4.7130 collar -0.2956
-4.7764 colleague -0.2560
-4.4702 colleagues -0.3317
-4.5964 collect -0.3666
-4.4383 collected -0.4710
-5.6988 collectible -0.1895
-5.6410 collectibles -0.2822
-4.6648 collecting -0.3234
-4.2872 collection -0.5355
-5.0023 collections -0.4217
-4.9248 collective -0.2181
-5.0195 collector -0.2848
-5.0944 collectors -0.3078
-4.0081 college -0.4440
-4.9604 colleges -0.3149
-4.6966 collins -0.2799
-5.1657 cologne -0.2580
-5.1235 colombia -0.2399
-5.1891 colon -0.3645
-4.9682 colonial -0.2785
-4.8459 colony -0.3196
-4.2227 color -0.3745
-4.6117 colorado -0.2700
-4.6864 colored -0.1917
-4.5253 colors -0.3948
-4.6739 columbia -0.2945
-4.8595 columbus -0.3295
-4.5670 column -0.3701
-5.6231 columnists -0.1973
-4.8754 columns -0.3250
-4.8034 com -0.3036
-4.4682 combat -0.3262
-4.5219 combination -0.5300
-5.1171 combinations -0.4572
-4.9553 combine -0.3302
-4.4551 combined -0.3786
-5.3446 combines -0.1854
-5.1528 combining -0.1858
-5.2412 combo -0.2398
-3.0247 come -0.9174
-4.5513 comedy -0.3299
-3.5175 comes -0.8849
-4.5358 comfort -0.4862
-4.3960 comfortable -0.3826
-4.6938 comic -0.3290
-5.0684 comics -0.2668
-3.3372 coming -0.9296
-4.2365 command -0.4119
-4.0408 commander -0.4360
-4.7916 commands -0.4321
-4.1609 comment -0.6526
-5.0492 commentary -0.4083
-5.0107 commented -0.4584
-4.3114 comments -0.5879
-4.5865 commerce -0.3738
-4.2650 commercial -0.2929
-4.1691 commission -0.4125
-4.5356 commissioner -0.3255
-5.2364 commissioners -0.2026
-5.1566 commissions -0.3327
-4.5373 commit -0.5572
-4.3668 commitment -0.6148
-4.9736 commitments -0.4205
-4.1290 committed -0.6788
-3.8371 committee -0.4958
-4.8229 committees -0.3704
-5.1180 commodities -0.3333
-5.0688 commodity -0.3627
-4.0430 common -0.3260
-4.7814 commonly -0.3603
-5.4690 commons -0.1342
-5.0511 commonwealth -0.2819
-4.7590 communicate -0.5006
-4.4453 communication -0.4534
-4.4035 communications -0.4227
-4.4845 communist -0.3280
-4.4255 communities -0.4668
-3.7626 community -0.4685
-5.2994 comp -0.2878
-5.0124 compact -0.3039
-3.8203 companies -0.4778
-4.6640 companion -0.2797
-3.6041 company -0.4223
-5.6293 compaq -0.1419
-5.0882 comparable -0.3510
-5.3615 comparative -0.2096
-4.6661 compare -0.4729
-4.2473 compared -0.9917
-4.9976 comparing -0.3663
-4.7642 comparison -0.4163
-5.1777 comparisons -0.3778
-5.5576 compatibility -0.3400
-5.1623 compatible -0.4787
-4.7773 compensation -0.4478
-4.6123 compete -0.6439
-4.9218 competent -0.2713
-4.7574 competing -0.3841
-4.2051 competition -0.4952
-5.2598 competitions -0.3529
-4.5590 competitive -0.2852
-4.8624 competitors -0.3452
-5.5701 compilation -0.4112
-5.6043 compile -0.3130
-5.1917 compiled -0.4625
-6.0526 compiler -0.2387
-4.6812 complaint -0.4246
-4.6128 complaints -0.5190
-5.3523 complement -0.3458
-4.1274 complete -0.2952
-4.4614 completed -0.4559
-3.9778 completely -0.3567
-5.1568 completing -0.5678
-5.2226 completion -0.4624
-4.3722 complex -0.2725
-5.2154 complexity -0.4945
-4.9494 compliance -0.5131
-5.6274 compliant -0.2654
-4.4858 complicated -0.2909
-4.9290 complications -0.4993
-5.2835 complimentary -0.2166
-4.9134 comply -0.5763
-4.9233 component -0.4636
-4.9110 components -0.4399
-4.6711 composed -0.5224
-5.0828 composer -0.2064
-4.8919 composite -0.3961
-4.8854 composition -0.4034
-4.4459 compound -0.3841
-5.0128 compounds -0.4251
-4.8179 comprehensive -0.2904
-5.1671 compressed -0.3389
-5.2259 compression -0.3130
-4.3884 compromise -0.4698
-5.6848 computation -0.1754
-5.8788 computational -0.2835
-5.6430 compute -0.1919
-5.6288 computed -0.2281
-3.9409 computer -0.3785
-4.3895 computers -0.4032
-5.3656 computing -0.1913
-4.5676 con -0.2894
-4.7652 concentrate -0.5280
-4.7752 concentration -0.5614
-5.4843 concentrations -0.4439
-4.5211 concept -0.5100
-5.1068 concepts -0.4292
-5.6632 conceptual -0.1404
-4.0777 concern -0.6182
-3.9510 concerned -0.6097
-4.4151 concerning -0.3991
-4.2617 concerns -0.5310
-4.5204 concert -0.4094
-5.0307 concerts -0.3554
-4.8622 conclude -0.5259
-4.5408 concluded -0.5246
-4.4969 conclusion -0.5401
-4.7975 conclusions -0.4731
-5.2990 concord -0.3253
-4.6456 concrete -0.2317
-4.1657 condition -0.5794
-5.3831 conditional -0.3639
-5.2180 conditioning -0.2075
-4.1521 conditions -0.5465
-5.1022 condo -0.3395
-5.4405 condos -0.3340
-4.3062 conduct -0.4300
-4.4580 conducted -0.5304
-4.7974 conducting -0.3901
-3.9768 conference -0.5260
-4.9913 conferences -0.3542
-5.9262 conferencing -0.2281
-4.2320 confidence -0.5332
-4.4960 confident -0.4674
-4.7963 confidential -0.3643
-5.1223 confidentiality -0.3824
-5.2742 configuration -0.4053
-5.7880 configurations -0.3856
-5.9943 configure -0.1678
-5.7685 configured -0.2581
-6.2020 configuring 0.0000
-4.5632 confirm -0.5350
-4.7235 confirmation -0.5697
-4.2925 confirmed -0.5555
-4.2593 conflict -0.5556
-4.8109 conflicts -0.4875
-4.5462 confused -0.4184
-4.6253 confusion -0.4370
-5.4122 congo -0.1522
-4.3749 congratulations -0.5027
-3.5849 congress -0.4321
-4.2496 congressional -0.4947
-5.3112 conjunction -0.6288
-4.7810 connect -0.4667
-4.3883 connected -0.6324
-4.6602 connecticut -0.2457
-4.8637 connecting -0.3668
-4.2986 connection -0.6385
-4.6936 connections -0.4854
-5.9554 connectivity -0.2493
-5.8295 connector -0.1163
-5.8432 connectors -0.2951
-5.1892 cons -0.3099
-4.6574 conscious -0.3206
-4.7037 consciousness -0.3976
-5.0576 consecutive -0.3698
-4.7823 consensus -0.4179
-4.6879 consent -0.5399
-4.9677 consequence -0.4141
-4.5492 consequences -0.5555
-5.0345 consequently -0.1723
-5.0686 conservation -0.3243
-4.1962 conservative -0.2891
-4.1108 consider -0.4227
-4.6685 considerable -0.2494
-4.6349 consideration -0.4970
-5.0403 considerations -0.3719
-4.0041 considered -0.3873
-4.2969 considering -0.5350
-4.8321 considers -0.3956
-5.0915 consist -0.8529
-5.1670 consistency -0.4676
-4.4539 consistent -0.5273
-4.9430 consistently -0.1367
-4.8169 consisting -1.0659
-4.6799 consists -1.0981
-5.0874 console -0.3676
-5.6553 consoles -0.2357
-5.3568 consolidated -0.2003
-5.3991 consolidation -0.3555
-5.3616 consortium -0.3096
-4.4710 conspiracy -0.5020
-4.5794 constant -0.1861
-4.4041 constantly -0.2029
-5.0160 constitute -0.3294
-5.0885 constitutes -0.3177
-4.3757 constitution -0.3572
-4.4658 constitutional -0.4610
-5.5432 constraint -0.2925
-5.4277 constraints -0.3359
-5.2106 construct -0.3223
-4.8883 constructed -0.3594
-4.3403 construction -0.4775
-4.9118 consult -0.4568
-5.8210 consultancy -0.2214
-4.7254 consultant -0.3406
-5.0744 consultants -0.2608
-5.1057 consultation -0.4365
-4.8650 consulting -0.4975
-4.3862 consumer -0.3838
-4.4750 consumers -0.3890
-4.8714 consumption -0.4211
-4.1447 contact -0.5227
-4.7936 contacted -0.3936
-5.3357 contacting -0.2998
-4.6630 contacts -0.5081
-4.5792 contain -0.3349
-4.4429 contained -0.3911
-4.9885 container -0.3419
-5.1045 containers -0.3732
-4.5398 containing -0.3246
-4.4763 contains -0.4095
-4.7870 contamination -0.4618
-4.8468 contemporary -0.1938
-4.5132 content -0.5081
-4.9202 contents -0.3469
-4.4741 contest -0.4192
-5.1363 contests -0.3159
-4.5958 context -0.4899
-4.9913 continent -0.3094
-5.0133 continental -0.2524
-4.7604 continually -0.0654
-3.7546 continue -0.6293
-4.0161 continued -0.4006
-4.0386 continues -0.7482
-4.3424 continuing -0.4121
-5.2753 continuity -0.4447
-5.0281 continuous -0.0955
-5.0090 continuously -0.1916
-4.1622 contract -0.4631
-5.2558 contracting -0.2620
-5.0595 contractor -0.2466
-5.0069 contractors -0.3014
-4.6304 contracts -0.4210
-4.6869 contrary -0.3463
-4.7872 contrast -0.3482
-4.7732 contribute -0.5159
-4.7331 contributed -0.5879
-5.0116 contributing -0.4952
-4.7344 contribution -0.5893
-4.7341 contributions -0.5221
-5.3464 contributor -0.4137
-5.2461 contributors -0.3565
-3.6641 control -0.5125
-4.4349 controlled -0.3826
-5.2540 controller -0.2270
-5.2443 controllers -0.2315
-4.7201 controlling -0.3878
-4.4466 controls -0.4169
-4.5420 controversial -0.1912
-4.5081 controversy -0.4557
-5.0067 convenience -0.4683
-4.9410 convenient -0.3044
-4.2927 convention -0.4200
-4.6894 conventional -0.2541
-5.0772 conventions -0.3286
-5.5497 convergence -0.3519
-4.1757 conversation -0.5273
-4.5847 conversations -0.5681
-4.9826 conversion -0.3500
-5.0323 convert -0.3598
-4.8713 converted -0.4416
-5.6452 converter -0.2636
-5.2130 convertible -0.3166
-4.4247 convicted -0.5263
-4.5938 conviction -0.5061
-4.3319 convinced -0.5902
-4.3752 cook -0.3765
-5.4384 cookbook -0.2447
-4.7512 cooked -0.3838
-4.8165 cookie -0.3010
-4.7689 cookies -0.4291
-4.4754 cooking -0.4180
-4.1523 cool -0.3282
-4.9853 cooler -0.3104
-4.9940 cooling -0.3824
-4.4874 cooper -0.3392
-4.4993 cooperation -0.5444
-5.0132 cooperative -0.2642
-5.1219 coordinate -0.3577
-5.1868 coordinated -0.2698
-4.9070 coordinates -0.3603
-5.2033 coordination -0.3759
-5.0989 coordinator -0.3947
-4.4019 cop -0.3279
-4.9300 cope -0.5535
-5.0423 copied -0.3985
-4.6085 copies -0.5731
-4.7417 copper -0.2787
-4.3023 copy -0.5178
-5.1936 copying -0.2494
-5.1678 copyright -0.3433
-5.7945 copyrighted -0.2134
-5.8532 copyrights -0.3672
-5.0053 coral -0.4499
-4.9428 cord -0.3050
-5.8543 cordless -0.3790
-4.5514 core -0.3241
-5.2551 cork -0.2803
-4.5253 corn -0.3905
-5.2054 cornell -0.3198
-4.3555 corner -0.3846
-4.8618 corners -0.3711
-5.5296 cornwall -0.2241
-5.3040 corp -0.2000
-4.3082 corporate -0.3579
-4.4215 corporation -0.3440
-4.6581 corporations -0.3771
-4.6174 corps -0.2733
-5.4180 corpus -0.2860
-3.7777 correct -0.5601
-4.9204 corrected -0.3612
-4.9146 correction -0.3123
-5.1391 corrections -0.3124
-4.6316 correctly -0.3867
-5.3825 correlation -0.5617
-4.9605 correspondence -0.3620
-5.0096 corresponding -0.2351
-4.5821 corruption -0.4117
-4.3859 cos -0.3816
-5.1773 cosmetic -0.3008
-5.2268 cosmetics -0.2894
-3.8113 cost -0.6539
-5.0249 costa -0.5541
-4.0674 costs -0.6135
-4.6073 costume -0.4071
-4.8533 costumes -0.3764
-4.8238 cottage -0.4151
-5.3612 cottages -0.2556
-4.4854 cotton -0.3526
-2.9477 could -0.9342
-4.0665 council -0.4106
-5.3118 councils -0.2663
-4.0950 counsel -0.5024
-4.8211 counseling -0.3012
-4.1161 count -0.4337
-4.7283 counted -0.4689
-4.4991 counter -0.3168
-5.2947 counters -0.2671
-4.9970 counties -0.3616
-4.5813 counting -0.4272
-3.9354 countries -0.4750
-3.3320 country -0.4356
-4.5502 counts -0.5127
-4.0408 county -0.3879
-3.7990 couple -0.4882
-5.0076 coupled -0.8640
-4.6239 couples -0.3296
-5.3372 coupon -0.2535
-5.1791 coupons -0.3855
-4.4607 courage -0.4867
-5.0497 courier -0.2719
-3.5099 course -0.3300
-4.7856 courses -0.4314
-3.5031 court -0.4830
-4.7800 courtesy -0.4756
-4.4450 courts -0.3335
-5.1750 cove -0.2809
-3.9844 cover -0.5279
-4.1043 coverage -0.5681
-4.0790 covered -0.5827
-4.3021 covering -0.5869
-4.5724 covers -0.3894
-4.6046 cow -0.2691
-4.6835 cowboy -0.2873
-5.0936 cox -0.2456
-4.4322 crack -0.4835
-5.2112 cradle -0.3291
-4.6430 craft -0.2960
-5.3531 crafts -0.1793
-4.5561 craig -0.2885
-4.3083 crap -0.3938
-5.3821 craps -0.3151
-4.3302 crash -0.4744
-5.0243 crawford -0.2100
-4.1777 crazy -0.3336
-4.5603 cream -0.3413
-4.1112 create -0.4062
-4.0777 created -0.5299
-4.6644 creates -0.3626
-4.4099 creating -0.3854
-4.6060 creation -0.4511
-5.2795 creations -0.3464
-4.6081 creative -0.2978
-5.1792 creativity -0.3442
-5.1157 creator -0.2864
-4.4720 creature -0.3923
-4.4590 creatures -0.4082
-4.0340 credit -0.5764
-4.9130 credits -0.3307
-4.6999 creek -0.2997
-4.9865 crest -0.3104
-4.1769 crew -0.3764
-4.8614 cricket -0.3451
-3.6907 crime -0.5855
-4.2904 crimes -0.5269
-4.0385 criminal -0.5099
-4.0345 crisis -0.4777
-4.9852 criteria -0.4288
-5.5819 criterion -0.3072
-4.2456 critical -0.3793
-4.4326 criticism -0.5388
-4.3532 critics -0.4088
-4.7473 croatia -0.2998
-4.7349 crop -0.4084
-4.8284 crops -0.3985
-3.9387 cross -0.5008
-4.5242 crossing -0.5050
-5.4048 crossword -0.5386
-4.2472 crowd -0.3536
-4.6503 crown -0.4068
-4.6662 crucial -0.3063
-4.9227 crude -0.2316
-4.6606 cruise -0.4361
-5.4273 cruises -0.2609
-5.0507 cruz -0.2147
-4.3583 cry -0.5096
-4.5620 crystal -0.3138
-4.3560 cuba -0.3435
-5.3441 cube -0.1770
-5.4214 cubic -0.5697
-5.1616 cuisine -0.3460
-4.7380 cult -0.3760
-4.5458 cultural -0.2761
-4.2112 culture -0.4386
-4.9156 cultures -0.3312
-5.0822 cum -0.2805
-5.4407 cumulative -0.2621
-4.9665 cunt -0.0506
-4.2854 cup -0.4179
-4.8626 cups -0.4072
-4.6184 cure -0.4287
-4.5493 curious -0.2878
-5.0764 currencies -0.2930
-4.4248 currency -0.4093
-4.0851 current -0.2426
-4.4080 currently -0.2440
-5.1564 curriculum -0.3218
-6.0095 cursor -0.1151
-4.6743 curtis -0.2407
-4.8823 curve -0.3626
-5.1056 curves -0.3523
-4.5168 custody -0.4589
-4.7279 custom -0.2986
-4.6054 customer -0.3167
-4.3394 customers -0.4115
-5.9735 customize -0.1681
-5.5940 customized -0.1374
-4.7077 customs -0.3568
-3.5632 cut -0.7019
-4.6001 cute -0.3283
-4.0023 cuts -0.6159
-4.1507 cutting -0.5478
-5.2154 cyber -0.2421
-4.6264 cycle -0.4216
-5.0956 cycles -0.3642
-5.4225 cycling -0.1977
-5.2875 cylinder -0.2653
-5.3335 cyprus -0.2532
-5.0462 czech -0.3082
-5.2512 d -0.3136
-4.4644 da -0.3045
-3.8819 dad -0.4924
-4.2234 daddy -0.4177
-4.1641 daily -0.2928
-5.0384 dairy -0.4104
-4.6974 daisy -0.2446
-4.9161 dakota -0.2375
-4.5760 dale -0.2675
-4.5241 dallas -0.2769
-4.9350 dam -0.2853
-4.1241 damage -0.5888
-4.5132 damaged -0.3518
-4.8438 damages -0.4274
-4.8523 dame -0.2310
-4.1288 damn -0.3408
-4.0481 dan -0.4023
-4.6744 dana -0.2730
-4.1348 dance -0.4660
-4.3286 dancing -0.3913
-4.2732 danger -0.4962
-4.1532 dangerous -0.3034
-4.2367 daniel -0.3325
-5.0789 danish -0.1705
-4.2398 danny -0.3103
-4.6903 dare -0.3733
-4.1367 dark -0.3301
-4.6608 darkness -0.3216
-5.0263 darwin -0.1944
-5.0873 das -0.2085
-4.8804 dash -0.3407
-4.7807 dat -0.2593
-4.1155 data -0.5138
-4.7066 database -0.3938
-5.2399 databases -0.3761
-4.0769 date -0.4423
-4.6627 dated -0.4238
-4.5163 dates -0.4633
-4.4960 dating -0.4554
-4.0033 daughter -0.3329
-4.6378 daughters -0.2683
-4.2948 dave -0.2978
-3.7428 david -0.3796
-5.1537 davidson -0.2029
-4.4018 davis -0.3195
-4.5446 dawn -0.3236
-3.2263 day -0.4460
-3.5117 days -0.5503
-4.9426 dayton -0.3391
-4.9868 dc -0.0508
-3.7708 de -0.2399
-3.7189 dead -0.4473
-4.6577 deadline -0.3924
-4.5768 deadly -0.2415
-4.8058 deaf -0.4035
-3.6156 deal -0.5480
-4.7294 dealer -0.2857
-4.6402 dealers -0.3513
-4.1852 dealing -0.7595
-4.4107 deals -0.5607
-4.5767 dealt -0.7256
-4.3085 dean -0.3918
-4.0174 dear -0.4013
-3.6141 death -0.5760
-4.5209 deaths -0.5180
-3.9602 debate -0.5233
-4.6801 deborah -0.3178
-4.3004 debt -0.4535
-6.2238 debug 0.0000
-4.9810 debut -0.4197
-5.2342 dec -0.6211
-4.5472 decade -0.3409
-4.4399 decades -0.4473
-4.3025 december -0.5435
-4.6092 decent -0.2252
-4.1210 decide -0.7816
-3.8786 decided -0.8047
-5.6998 decimal -0.4533
-3.7909 decision -0.6370
-4.2562 decisions -0.5977
-4.6723 deck -0.3185
-4.7548 declaration -0.4690
-4.7553 declare -0.4769
-4.2323 declared -0.4912
-4.6047 decline -0.5113
-4.5876 declined -0.5845
-5.5328 decor -0.2606
-5.2447 decorating -0.2798
-5.2981 decorative -0.1985
-5.0687 decrease -0.3856
-5.1819 decreased -0.2857
-4.6409 dedicated -0.4204
-4.6432 dee -0.4238
-4.9610 deemed -0.3088
-4.0156 deep -0.4318
-4.6093 deeper -0.4021
-4.4430 deeply -0.4599
-4.7993 deer -0.2874
-5.1790 default -0.3310
-4.4792 defeat -0.4745
-5.1342 defects -0.3995
-4.8203 defence -0.3313
-4.4422 defend -0.5759
-4.3858 defendant -0.2215
-3.5011 defense -0.5483
-4.6961 defensive -0.3653
-5.3095 deferred -0.2460
-4.1202 deficit -0.4435
-4.7104 define -0.3154
-4.7398 defined -0.3585
-5.1500 defines -0.3233
-5.0546 defining -0.3135
-4.0969 definitely -0.2701
-4.6499 definition -0.4675
-5.3499 definitions -0.4393
-4.3158 degree -0.4175
-4.7043 degrees -0.4169
-4.6822 del -0.2483
-5.0401 delaware -0.2262
-4.4861 delay -0.3884
-4.6915 delayed -0.3268
-4.9244 delays -0.3909
-4.7307 delegation -0.4100
-5.3176 delete -0.3449
-5.2179 deleted -0.2530
-5.3164 delhi -0.2125
-4.7388 delicious -0.2181
-4.7230 delight -0.4657
-4.5037 deliver -0.4516
-4.3577 delivered -0.5817
-4.8056 delivering -0.3765
-5.0640 delivers -0.3454
-4.4908 delivery -0.4682
-5.0300 dell -0.2837
-4.7580 delta -0.3058
-5.4041 deluxe -0.2293
-4.2398 demand -0.4574
-4.5589 demanding -0.3591
-4.3743 demands -0.5340
-5.3050 demo -0.2023
-4.2084 democracy -0.4731
-4.2961 democrat -0.3413
-3.8906 democratic -0.4439
-3.8529 democrats -0.4190
-5.3614 demographic -0.2140
-4.8246 demonstrate -0.4682
-4.8328 demonstrated -0.4691
-5.2058 demonstrates -0.4211
-4.7030 demonstration -0.3940
-4.7672 den -0.2108
-4.8380 denial -0.4259
-4.3385 denied -0.5714
-5.1569 denmark -0.2107
-4.3272 dennis -0.4008
-5.0818 dense -0.2364
-5.1437 density -0.3054
-4.8741 dental -0.4598
-5.3807 dentists -0.2529
-4.7433 denver -0.2395
-4.5642 deny -0.5278
-3.7601 department -0.4836
-5.5284 departmental -0.2055
-4.8814 departments -0.3460
-4.6898 departure -0.4381
-4.6081 depend -0.9730
-5.2346 dependence -0.6021
-4.7534 dependent -0.6469
-4.5565 depending -1.2516
-4.2972 depends -0.9105
-4.8841 deployment -0.4150
-4.8245 deposit -0.3791
-4.8940 deposits -0.3941
-5.1077 depot -0.3010
-4.5907 depression -0.3636
-4.7495 depth -0.4573
-4.2732 deputy -0.4731
-4.9448 der -0.1762
-5.1647 derby -0.2281
-4.5736 derek -0.3379
-4.8896 derived -0.5999
-4.5007 des -0.4242
-5.0049 descending -0.4541
-4.3912 describe -0.5539
-4.1559 described -0.6057
-4.6707 describes -0.5021
-4.7767 describing -0.4396
-4.4874 description -0.5284
-5.0235 descriptions -0.5366
-4.4504 desert -0.3436
-4.5708 deserve -0.5917
-4.3206 design -0.3655
-4.8960 designated -0.2450
-5.3183 designation -0.3292
-4.1957 designed -0.7657
-4.7389 designer -0.2355
-5.0255 designers -0.2963
-5.0801 designing -0.3349
-4.7642 designs -0.3964
-5.0756 desirable -0.2643
-4.3329 desire -0.6278
-4.7664 desired -0.3233
-4.4372 desk -0.3969
-5.5309 desktop -0.3221
-6.0559 desktops -0.1947
-4.5036 desperate -0.3314
-4.0355 despite -0.5937
-4.8859 destination -0.3012
-5.3442 destinations -0.2767
-4.6969 destiny -0.3962
-4.4364 destroy -0.4983
-4.2278 destroyed -0.5607
-4.4870 destruction -0.5007
-4.4527 detail -0.4706
-4.7180 detailed -0.2608
-4.1309 details -0.6315
-5.0017 detect -0.2757
-4.8496 detected -0.4259
-5.0748 detection -0.4022
-3.9217 detective -0.4691
-5.1740 detector -0.2914
-4.6374 determination -0.5318
-4.3830 determine -0.6104
-4.2575 determined -0.5598
-5.1323 determines -0.4938
-5.0440 determining -0.4448
-4.5944 detroit -0.2707
-5.5621 deutsch -0.2332
-5.5333 deutsche -0.5035
-5.9627 deutschland -0.0321
-5.2892 dev -0.4340
-4.4239 develop -0.3479
-4.3004 developed -0.4485
-5.2829 developer -0.1877
-5.1946 developers -0.2718
-4.5112 developing -0.3766
-4.1211 development -0.4508
-5.6098 developmental -0.2322
-4.6450 developments -0.4811
-5.0581 develops -0.3092
-5.5231 deviant -0.2766
-5.4744 deviation -0.3799
-4.4029 device -0.4760
-4.6427 devices -0.4553
-4.6880 devil -0.2865
-5.0222 devon -0.2461
-4.5852 devoted -0.5270
-4.4916 di -0.1645
-5.0781 diabetes -0.3064
-4.9138 diagnosis -0.4063
-5.1836 diagnostic -0.3162
-5.1454 diagram -0.3040
-4.8225 dial -0.3929
-5.7519 dialog -0.2592
-4.6179 dialogue -0.4387
-5.3372 diameter -0.2597
-4.6253 diamond -0.2680
-4.7289 diamonds -0.3548
-4.5619 diana -0.2557
-4.5946 diane -0.3121
-4.7901 diary -0.3427
-5.0289 dice -0.2892
-4.1307 dick -0.4312
-5.2651 dicks -0.2459
-5.6977 dictionaries -0.2424
-5.1031 dictionary -0.3219
-2.9042 did -0.7856
-4.0106 die -0.5457
-3.6994 died -0.8317
-4.6329 diego -0.2672
-4.3636 dies -0.5984
-5.1345 diesel -0.3934
-4.5051 diet -0.3920
-5.3859 dietary -0.3841
-5.7629 diff -0.2227
-4.8683 differ -0.5048
-4.0383 difference -0.5836
-4.4357 differences -0.5947
-3.5262 different -0.4075
-5.2975 differential -0.3127
-4.5088 differently -0.6543
-3.8423 difficult -0.5171
-4.6710 difficulties -0.4231
-4.6338 difficulty -0.4078
-4.6055 dig -0.5639
-5.2225 digest -0.2264
-5.3113 digit -0.2888
-4.7390 digital -0.2966
-5.4944 dildo -0.0495
-4.8940 dim -0.3294
-5.0357 dimension -0.4213
-5.3363 dimensional -0.1472
-5.0477 dimensions -0.4473
-4.8450 dining -0.6295
-4.1215 dinner -0.5106
-4.8497 dip -0.4709
-5.3926 diploma -0.3079
-4.1432 direct -0.4248
-4.4246 directed -0.5490
-4.2339 direction -0.5128
-4.7266 directions -0.4190
-5.2304 directive -0.2743
-4.0316 directly -0.6820
-3.9278 director -0.4637
-5.8176 directories -0.3038
-4.7727 directors -0.2904
-5.2540 directory -0.3575
-4.5869 dirt -0.4176
-4.3370 dirty -0.3476
-4.9520 dis -0.1868
-5.2459 disabilities -0.3174
-4.9895 disability -0.3518
-5.4067 disable -0.4511
-4.7132 disabled -0.3567
-4.4830 disagree -0.6354
-4.5788 disappointed -0.5107
-4.3291 disaster -0.4476
-5.0198 disc -0.3054
-4.8543 discharge -0.3413
-5.1524 disciplinary -0.4744
-4.5804 discipline -0.3971
-5.5476 disciplines -0.2307
-5.7402 disclaimer -0.2387
-6.0768 disclaimers -0.1696
-5.0734 disclose -0.4403
-4.9769 disclosure -0.3438
-5.0469 disco -0.2318
-4.8022 discount -0.3447
-5.4281 discounted -0.1908
-5.3159 discounts -0.4004
-4.7687 discover -0.4372
-4.1972 discovered -0.4947
-4.4400 discovery -0.4524
-5.5643 discrete -0.1717
-4.8916 discretion -0.4840
-4.6256 discrimination -0.4712
-5.2916 discs -0.3418
-4.2427 discuss -0.4296
-4.4526 discussed -0.4594
-5.5098 discusses -0.1721
-4.5876 discussing -0.3868
-4.2329 discussion -0.5645
-4.6225 discussions -0.5703
-4.1048 disease -0.4661
-4.6376 diseases -0.4564
-4.7133 dish -0.3814
-4.7615 dishes -0.3580
-4.9870 disk -0.2967
-5.3008 disks -0.2734
-4.7212 disney -0.2463
-4.7181 disorder -0.4091
-5.0899 disorders -0.4111
-4.8997 dispatch -0.2517
-5.0906 dispatched -0.4028
-4.4927 display -0.4388
-4.7119 displayed -0.4455
-5.1104 displaying -0.2772
-4.9573 displays -0.4012
-5.0700 disposal -0.3094
-4.9327 disposition -0.5034
-4.5442 dispute -0.4813
-4.8947 disputes -0.4056
-4.3971 distance -0.3884
-5.1889 distances -0.3731
-4.7103 distant -0.2720
-4.8927 distinct -0.1802
-4.7940 distinction -0.4859
-4.7161 distinguished -0.3270
-5.1701 distribute -0.2544
-4.8784 distributed -0.3838
-4.6403 distribution -0.4600
-5.9637 distributions -0.1690
-5.2680 distributor -0.2845
-5.3848 distributors -0.3065
-4.1033 district -0.4617
-4.7107 districts -0.3821
-4.7550 disturbed -0.4479
-4.8177 dive -0.4215
-4.9738 diverse -0.2365
-4.8938 diversity -0.4195
-4.7285 divide -0.4866
-4.4440 divided -0.5265
-5.3313 dividend -0.2925
-4.6824 divine -0.2803
-4.9469 diving -0.3120
-4.2281 division -0.4238
-4.7883 divisions -0.4224
-4.4569 divorce -0.3884
-5.6319 dk -0.1294
-4.4437 dna -0.0608
-2.6216 do -0.7126
-4.3414 doc -0.3653
-4.9471 dock -0.2821
-3.3850 doctor -0.3038
-4.0367 doctors -0.4596
-4.8617 doctrine -0.4126
-4.4271 document -0.3510
-4.9140 documentary -0.3304
-5.1322 documentation -0.4055
-5.0478 documented -0.2669
-4.2923 documents -0.4640
-4.9092 dodge -0.3055
-4.9555 doe -0.3033
-3.1902 does -0.6189
-3.9803 dog -0.3665
-4.2624 dogs -0.4016
-3.3401 doing -0.6123
-4.6162 doll -0.3138
-3.8602 dollar -0.3172
-3.3069 dollars -0.5878
-4.8619 dolls -0.3180
-4.9195 dom -0.3291
-5.0941 domain -0.3851
-5.6964 domains -0.3435
-4.9738 dome -0.2942
-4.1866 domestic -0.4376
-4.9798 dominant -0.2070
-5.2521 dominican -0.3819
-4.1021 don -0.4076
-4.5799 donald -0.3140
-5.1659 donate -0.3931
-4.9596 donated -0.4270
-5.0979 donation -0.3965
-4.9507 donations -0.4653
-3.4414 done -0.5602
-4.3793 donna -0.3929
-4.9238 donor -0.3037
-4.9946 donors -0.3470
-4.9891 doom -0.2686
-3.9679 door -0.4288
-4.3703 doors -0.4821
-5.2126 dos -0.2821
-5.3917 dosage -0.2658
-4.8526 dose -0.4464
-4.6278 dot -0.2087
-4.0465 double -0.4213
-4.1382 doubt -0.4203
-4.4655 doug -0.3018
-4.5018 douglas -0.2562
-5.3766 dover -0.3080
-4.4904 dow -0.4388
-3.0534 down -0.6422
-5.1739 download -0.2668
-5.2615 downloaded -0.3068
-5.4423 downloading -0.2256
-4.3243 downtown -0.4157
-4.5196 dozen -0.1385
-4.4767 dozens -0.9171
-6.0604 dr -0.3522
-4.6144 draft -0.3560
-4.6232 drag -0.5343
-4.8118 dragon -0.2401
-4.8601 drain -0.3884
-5.3275 drainage -0.3409
-4.4037 drama -0.4174
-4.4300 dramatic -0.2691
-4.7171 dramatically -0.3545
-4.2901 draw -0.5077
-4.3654 drawing -0.4575
-4.9431 drawings -0.4031
-4.3693 drawn -0.5482
-4.7323 draws -0.4516
-4.1123 dream -0.4838
-4.3117 dreams -0.4797
-4.2368 dress -0.4492
-4.3453 dressed -0.6022
-4.6996 dresses -0.3989
-4.6977 dressing -0.4495
-4.1496 drew -0.4883
-4.7142 dried -0.4093
-4.7643 drill -0.3131
-5.0546 drilling -0.2950
-4.1941 drink -0.4474
-4.2886 drinking -0.4406
-4.5175 drinks -0.3987
-3.9984 drive -0.5247
-4.4296 driven -0.4821
-4.4053 driver -0.3015
-4.6916 drivers -0.2740
-4.5254 drives -0.5116
-4.1033 driving -0.5097
-4.0399 drop -0.6105
-4.0523 dropped -0.8020
-4.4540 drops -0.5207
-4.2800 drove -0.6976
-3.8714 drug -0.5501
-4.0457 drugs -0.5123
-4.8556 drum -0.3527
-5.0134 drums -0.2917
-4.3787 drunk -0.4740
-4.2673 dry -0.3814
-5.4328 dryer -0.1857
-4.5071 du -0.3678
-5.1582 dual -0.2461
-5.4210 dubai -0.2513
-5.1922 dublin -0.1854
-4.5254 duck -0.3200
-4.1134 dude -0.4010
-4.0327 due -0.8047
-5.5789 dui -0.1705
-4.5142 duke -0.3092
-4.5859 dumb -0.3194
-4.6598 dump -0.3882
-4.6107 duncan -0.2824
-5.3225 duo -0.1918
-5.2470 duplicate -0.2481
-5.3546 durable -0.2982
-5.2149 duration -0.4170
-5.2913 durham -0.2893
-3.4099 during -0.9232
-4.4798 dust -0.4003
-4.5641 dutch -0.2160
-4.6133 duties -0.4944
-4.2595 duty -0.4361
-5.0831 dvd -0.0447
-5.2875 dvds -0.0550
-4.2600 dying -0.4292
-4.5914 dylan -0.2299
-4.8904 dynamic -0.1954
-5.1752 dynamics -0.3331
-5.0946 e -0.3192
-3.4609 each -0.4888
-4.7007 eagle -0.3044
-5.0748 eagles -0.1927
-4.4654 ear -0.3740
-4.5045 earl -0.3182
-3.7415 earlier -0.4560
-5.1709 earliest -0.1572
-3.6904 early -0.4607
-4.6767 earn -0.5169
-4.5909 earned -0.5519
-4.8491 earning -0.4805
-4.6042 earnings -0.4173
-5.0809 earrings -0.3440
-4.5277 ears -0.3640
-4.0738 earth -0.3312
-4.5568 earthquake -0.3301
-4.5886 ease -0.4519
-4.3341 easier -0.6003
-4.2345 easily -0.2922
-3.9406 east -0.4761
-4.8904 easter -0.3669
-4.2101 eastern -0.3976
-3.9109 easy -0.4181
-4.0776 eat -0.5121
-4.2236 eating -0.4534
-5.6391 eau -0.4142
-5.5574 ebay -0.0302
-5.4078 ebony -0.2592
-4.7514 echo -0.3453
-5.1853 eclipse -0.2343
-5.4383 eco -0.2160
-5.4606 ecological -0.1773
-5.5004 ecology -0.2874
-3.7164 economic -0.4957
-4.7196 economics -0.3525
-4.9092 economies -0.3336
-3.7908 economy -0.4774
-5.6518 ecuador -0.2256
-4.1026 ed -0.3826
-4.3655 eddie -0.3098
-5.0958 eden -0.2115
-4.7876 edgar -0.3273
-4.4029 edge -0.4472
-5.0069 edges -0.3861
-5.3213 edinburgh -0.2227
-5.1858 edit -0.3720
-5.0338 edited -0.4467
-5.1549 editing -0.2370
-4.0870 edition -0.6023
-5.2961 editions -0.3597
-4.4134 editor -0.4539
-4.8597 editorial -0.3192
-5.4877 editorials -0.2576
-5.0001 editors -0.2603
-5.7634 edmonton -0.2307
-4.6822 educated -0.3179
-3.9792 education -0.4427
-4.6918 educational -0.3111
-5.3482 educators -0.2401
-4.4090 edward -0.2740
-4.4651 edwards -0.4884
-5.0585 ee -0.2425
-3.9444 effect -0.5180
-4.2928 effective -0.3085
-4.6342 effectively -0.1765
-5.1937 effectiveness -0.5259
-4.3735 effects -0.4927
-4.8834 efficiency -0.4189
-4.7407 efficient -0.2415
-5.2247 efficiently -0.3591
-4.0133 effort -0.6056
-4.1341 efforts -0.6376
-4.5625 egg -0.3225
-4.4413 eggs -0.4464
-4.6290 egypt -0.3179
-4.7593 egyptian -0.2838
-3.9533 eh -0.5312
-3.3081 eight -0.4709
-3.5333 either -0.3350
-6.1900 ejaculation -0.1130
-4.3262 el -0.3236
-4.9379 elder -0.2666
-4.6160 elderly -0.3117
-4.6407 elect -0.3883
-4.2218 elected -0.5146
-3.8734 election -0.4597
-4.2038 elections -0.4979
-4.9176 electoral -0.4556
-4.5018 electric -0.3626
-4.6899 electrical -0.4475
-4.5903 electricity -0.3985
-5.6423 electro -0.3042
-5.5273 electron -0.3580
-4.6082 electronic -0.2851
-4.8789 electronics -0.2693
-4.8913 elegant -0.1132
-4.4643 element -0.5960
-4.7940 elementary -0.5222
-4.4219 elements -0.5673
-4.8145 elephant -0.2231
-5.2048 elevation -0.3327
-3.9041 eleven -0.4282
-5.5426 eligibility -0.3702
-4.8952 eligible -0.4743
-4.6707 eliminate -0.3341
-5.1609 elimination -0.4807
-4.8095 elite -0.2146
-4.3329 elizabeth -0.3215
-4.4956 ellen -0.2750
-5.0269 elliott -0.2567
-4.7656 ellis -0.2981
-3.8113 else -0.4071
-4.3443 elsewhere -0.5584
-4.6998 elvis -0.2987
-4.5951 em -0.3085
-5.1112 email -0.2045
-5.2220 emails -0.0412
-4.6798 embassy -0.3679
-4.9914 embedded -0.6118
-5.2401 emerald -0.3074
-4.1525 emergency -0.4094
-4.7802 emerging -0.3722
-4.4329 emily -0.2513
-5.7453 emirates -0.1722
-5.4069 emission -0.3429
-5.1375 emissions -0.3910
-4.5470 emma -0.3555
-4.3443 emotional -0.3025
-4.5692 emotions -0.4305
-4.8146 emperor -0.2767
-4.7801 emphasis -0.6280
-4.6094 empire -0.3525
-5.4577 empirical -0.3334
-4.9671 employ -0.2424
-4.5618 employed -0.4303
-4.4861 employee -0.3158
-4.1913 employees -0.4041
-4.7145 employer -0.3201
-4.7110 employers -0.3251
-4.5370 employment -0.4022
-4.3272 empty -0.3226
-4.2315 en -0.4259
-5.0028 enable -0.4040
-4.8940 enabled -0.4760
-5.1682 enables -0.4273
-5.1977 enabling -0.3849
-5.0528 enclosed -0.2950
-5.3645 enclosure -0.2943
-5.8889 encoding -0.1289
-4.7468 encounter -0.3483
-4.8988 encountered -0.3170
-4.5950 encourage -0.3700
-4.5961 encouraged -0.5403
-5.1608 encourages -0.2548
-4.7190 encouraging -0.3279
-5.2614 encryption -0.3534
-5.3861 encyclopedia -0.3364
-3.4895 end -0.5892
-4.7961 endangered -0.4679
-4.0651 ended -0.7394
-4.4101 ending -0.4736
-4.8106 endless -0.1510
-4.9511 endorsed -0.3905
-4.9287 endorsement -0.4810
-4.2177 ends -0.6613
-4.5139 enemies -0.4128
-4.3926 enemy -0.3272
-4.0508 energy -0.4652
-4.3864 enforcement -0.3176
-5.5341 eng -0.2168
-4.6664 engage -0.5662
-4.3631 engaged -0.6109
-4.7052 engagement -0.4083
-4.9425 engaging -0.4041
-4.4787 engine -0.3245
-4.6666 engineer -0.2595
-4.6691 engineering -0.2808
-4.7046 engineers -0.3112
-4.7185 engines -0.3413
-4.3105 england -0.2793
-4.1077 english -0.2850
-5.0764 enhance -0.4078
-5.0034 enhanced -0.2671
-5.3434 enhancement -0.3947
-5.7344 enhancements -0.2891
-5.4373 enhancing -0.2974
-4.2563 enjoy -0.5241
-4.5451 enjoyed -0.4888
-4.6145 enjoying -0.5971
-5.4625 enlarge -0.4121
-5.4734 enlargement -0.2962
-4.3729 enormous -0.1965
-3.4558 enough -0.4734
-5.2152 enrolled -0.5207
-5.5327 enrollment -0.2935
-5.2940 ensemble -0.2488
-4.7269 ensure -0.4372
-5.5157 ensures -0.3315
-5.4385 ensuring -0.3899
-5.5192 ent -0.0317
-4.3380 enter -0.4526
-4.1632 entered -0.6300
-4.5125 entering -0.4808
-4.5676 enterprise -0.3442
-4.9696 enterprises -0.3410
-4.7084 enters -0.5936
-4.8905 entertaining -0.2436
-4.2710 entertainment -0.4880
-4.1229 entire -0.2333
-4.2446 entirely -0.4085
-5.1906 entities -0.3284
-4.5165 entitled -0.4176
-5.0363 entity -0.3574
-4.5829 entrance -0.4823
-5.2111 entrepreneur -0.2025
-5.2261 entrepreneurs -0.2821
-5.0820 entries -0.4236
-4.5249 entry -0.4450
-4.6502 envelope -0.4167
-4.1849 environment -0.5055
-4.3613 environmental -0.4487
-5.2781 environments -0.3587
-5.3768 enzyme -0.2141
-5.8757 eos -0.1086
-5.0013 epic -0.2232
-4.6196 episode -0.4576
-4.9747 episodes -0.4442
-6.2140 epson -0.0856
-4.3162 equal -0.4152
-4.9354 equality -0.4421
-4.4676 equally -0.2421
-5.0510 equation -0.3136
-5.3301 equations -0.2949
-5.3902 equilibrium -0.3424
-4.1932 equipment -0.4499
-4.8267 equipped -0.5339
-4.8981 equity -0.3570
-4.7124 equivalent -0.7052
-4.2862 er -0.2293
-4.4514 era -0.3638
-4.2786 eric -0.2485
-5.9194 ericsson -0.2182
-4.9830 erik -0.2765
-5.0812 erotic -0.1591
-5.6923 erotica -0.3645
-4.5821 error -0.5053
-4.8414 errors -0.4726
-4.6466 es -0.1902
-4.3317 escape -0.4470
-4.7127 escort -0.3282
-5.1962 escorts -0.2978
-3.7451 especially -0.4816
-4.9541 essay -0.3573
-5.1021 essays -0.3685
-4.7580 essence -0.2979
-4.6053 essential -0.3251
-4.3875 essentially -0.1337
-5.4836 essentials -0.3003
-5.2565 essex -0.2850
-4.7164 est -0.1728
-4.5873 establish -0.3736
-4.3754 established -0.3448
-4.9575 establishing -0.3351
-4.6290 establishment -0.3730
-4.3487 estate -0.3630
-5.0798 estates -0.3109
-4.6027 estimate -0.4555
-4.5308 estimated -0.5003
-4.6498 estimates -0.4381
-5.3039 estimation -0.2786
-5.5869 estonia -0.2073
-4.1412 et -0.6001
-4.1946 etc -0.4362
-4.7750 eternal -0.2959
-6.0082 ethernet -0.1241
-4.7998 ethical -0.3396
-4.5811 ethics -0.4454
-5.3529 ethiopia -0.2097
-4.4827 ethnic -0.4415
-4.8060 eugene -0.2747
-5.1931 euro -0.2446
-4.0905 europe -0.3923
-4.1559 european -0.2973
-5.4859 euros -0.0618
-5.1817 ev -0.2259
-4.8288 eva -0.2066
-5.0914 evaluate -0.3563
-5.3749 evaluated -0.2970
-5.3623 evaluating -0.3147
-4.9239 evaluation -0.4146
-5.3521 evaluations -0.3440
-4.7519 evans -0.3400
-4.5242 eve -0.3231
-3.0902 even -0.4155
-3.9730 evening -0.3578
-4.0889 event -0.5075
-4.1218 events -0.5125
-4.1799 eventually -0.2894
-3.3803 ever -0.5766
-3.2185 every -0.5812
-3.6378 everybody -0.6493
-4.5454 everyday -0.3154
-3.6867 everyone -0.6520
-3.4692 everything -0.7604
-3.9934 everywhere -0.6026
-3.5475 evidence -0.7017
-4.9746 evident -0.3856
-4.2835 evil -0.2975
-4.7796 evolution -0.4432
-4.4260 ex -0.3349
-4.6261 exact -0.2863
-3.6403 exactly -0.5854
-4.7380 exam -0.4264
-4.2440 examination -0.5304
-5.1984 examinations -0.4023
-4.6108 examine -0.5102
-4.5845 examined -0.5061
-5.3275 examines -0.4359
-4.8297 examining -0.4156
-3.8503 example -0.3502
-4.7064 examples -0.5764
-5.0898 exams -0.3189
-5.1438 exceed -0.4625
-5.3190 excel -0.4225
-5.0434 excellence -0.4278
-4.2822 excellent -0.2122
-3.8408 except -0.5388
-4.7549 exception -0.4407
-5.1371 exceptional -0.1481
-5.0835 exceptions -0.3371
-5.6162 excerpt -0.3387
-4.8843 excess -0.3322
-4.8140 excessive -0.2683
-4.2227 exchange -0.4198
-5.1180 exchanges -0.3099
-4.4337 excited -0.5079
-4.6579 excitement -0.4417
-4.5128 exciting -0.3144
-5.0466 exclude -0.3229
-4.8943 excluded -0.4385
-5.2721 excluding -0.2110
-5.1098 exclusion -0.4581
-4.7370 exclusive -0.2543
-4.8172 exclusively -0.4208
-3.9199 excuse -0.8783
-5.5553 exec -0.1950
-5.0374 execute -0.4145
-4.6749 executed -0.4325
-4.7008 execution -0.4211
-4.1864 executive -0.4925
-4.6651 executives -0.3359
-5.1506 exempt -0.3848
-5.2056 exemption -0.3806
-4.3192 exercise -0.4343
-4.7721 exercises -0.4059
-5.1456 exhaust -0.3791
-4.5083 exhibit -0.4071
-4.8117 exhibition -0.3542
-5.3846 exhibitions -0.2594
-4.8682 exhibits -0.3364
-4.4188 exist -0.5978
-4.5997 existed -0.6111
-4.5163 existence -0.5250
-4.5994 existing -0.1562
-4.4504 exists -0.6779
-4.5548 exit -0.4844
-4.8885 exotic -0.1893
-4.6992 expand -0.4718
-4.8173 expanded -0.3451
-4.7984 expanding -0.3242
-4.7221 expansion -0.4793
-3.9811 expect -0.4770
-4.6016 expectations -0.5146
-3.8939 expected -0.5336
-4.7030 expects -0.4938
-5.2298 expenditure -0.3496
-5.2485 expenditures -0.3254
-4.7217 expense -0.5229
-4.7060 expenses -0.4691
-4.3355 expensive -0.2425
-3.8745 experience -0.5631
-4.5028 experienced -0.2721
-4.5659 experiences -0.4889
-5.0116 experiencing -0.3126
-4.5022 experiment -0.4718
-4.8842 experimental -0.2734
-4.6043 experiments -0.4924
-4.2452 expert -0.3860
-4.8659 expertise -0.4589
-4.1676 experts -0.5164
-5.5433 expiration -0.5605
-4.9175 expired -0.4208
-5.3346 expires -0.5202
-4.1538 explain -0.6554
-4.3370 explained -0.6393
-4.7173 explaining -0.6775
-4.5908 explains -0.6432
-4.5549 explanation -0.5421
-5.1375 explicit -0.2399
-5.2260 explicitly -0.1753
-5.0158 exploration -0.4040
-4.9122 explore -0.4154
-5.1107 explorer -0.2439
-4.9582 exploring -0.4343
-4.4574 explosion -0.4369
-5.4117 expo -0.2532
-4.7791 export -0.2941
-4.7422 exports -0.3956
-4.4664 exposed -0.5225
-4.6373 exposure -0.5232
-4.3869 express -0.4105
-4.3557 expressed -0.6306
-4.4480 expression -0.4241
-4.9196 expressions -0.4746
-4.6928 extend -0.5266
-4.4712 extended -0.3565
-4.7678 extending -0.4647
-4.8974 extends -0.4986
-4.7752 extension -0.4388
-5.3403 extensions -0.3806
-4.7253 extensive -0.2045
-4.4470 extent -0.3663
-4.9838 exterior -0.3186
-4.8636 external -0.2536
-4.2357 extra -0.2626
-4.9930 extract -0.3018
-5.0057 extraction -0.3908
-4.4388 extraordinary -0.1749
-5.2437 extras -0.3053
-4.4796 extreme -0.2481
-4.2317 extremely -0.4942
-4.0597 eye -0.4706
-4.9813 eyed -0.1769
-3.8903 eyes -0.5002
-4.3377 f -0.3499
-4.7646 fabric -0.4043
-5.2015 fabrics -0.3487
-4.7938 fabulous -0.1483
-3.6271 face -0.4908
-4.4443 faced -0.4508
-4.2194 faces -0.4079
-4.8625 facial -0.4563
-5.3804 facilitate -0.2723
-4.5464 facilities -0.4883
-4.4687 facility -0.4849
-4.2837 facing -0.4735
-3.3961 fact -0.3239
-4.3720 factor -0.5227
-4.6393 factors -0.4375
-4.4071 factory -0.3718
-4.2192 facts -0.5296
-4.8872 faculty -0.3087
-4.5017 fail -0.5955
-4.0686 failed -0.6167
-4.6570 failing -0.4914
-4.6678 fails -0.5607
-4.3178 failure -0.5823
-4.9486 failures -0.4441
-3.9085 fair -0.4271
-5.6155 fairfield -0.3465
-4.2415 fairly -0.3343
-4.6813 fairy -0.4684
-4.2101 faith -0.4454
-4.5401 fake -0.1955
-3.8968 fall -0.6077
-4.5433 fallen -0.4653
-4.2168 falling -0.6223
-4.2526 falls -0.6130
-4.3309 false -0.4123
-4.6059 fame -0.3417
-4.3474 familiar -0.3813
-3.9666 families -0.4980
-3.4420 family -0.4645
-4.2638 famous -0.1215
-4.3237 fan -0.4304
-4.4719 fancy -0.1825
-4.3042 fans -0.3835
-4.5495 fantastic -0.1902
-4.5742 fantasy -0.3896
-3.4858 far -0.6626
-4.7516 fare -0.3660
-5.1140 fares -0.2655
-4.2568 farm -0.3971
-4.6585 farmer -0.2186
-4.4564 farmers -0.3433
-4.9259 farming -0.3054
-4.8038 farms -0.3429
-4.6645 fascinating -0.2825
-4.1952 fashion -0.4111
-3.9780 fast -0.4645
-4.2792 faster -0.5526
-4.9595 fastest -0.2825
-4.1761 fat -0.3315
-4.7093 fatal -0.3293
-4.4112 fate -0.4969
-3.6813 father -0.3703
-4.6338 fathers -0.3155
-5.0205 fatty -0.4018
-4.4113 fault -0.4259
-4.2828 favor -0.3871
-4.3282 favorite -0.1928
-5.0876 favorites -0.3557
-4.7715 favors -0.2884
-4.7366 fax -0.5339
-4.5764 fbi -0.0552
-5.1893 fe -0.2053
-3.9702 fear -0.5176
-4.4435 fears -0.4764
-5.2040 feat -0.4080
-4.6325 feature -0.3418
-5.0576 featured -0.2952
-4.5241 features -0.3222
-5.1389 featuring -0.1366
-5.4101 feb -0.6953
-4.3278 february -0.6023
-4.2819 fed -0.4718
-3.6302 federal -0.5927
-4.6540 federation -0.3068
-4.6338 fee -0.4307
-4.4013 feed -0.5029
-5.1351 feedback -0.3388
-4.5563 feeding -0.4457
-4.9117 feeds -0.4698
-3.5364 feel -0.6677
-3.8876 feeling -0.6001
-4.2706 feelings -0.5499
-4.1119 feels -0.5824
-4.6399 fees -0.4854
-4.0425 feet -0.4976
-3.8723 fell -0.8655
-4.1728 fellow -0.2799
-5.1644 fellowship -0.3319
-3.8034 felt -0.6208
-4.2430 female -0.1950
-4.8528 females -0.3384
-4.6677 fence -0.3356
-5.2441 ferrari -0.1889
-4.9786 ferry -0.2273
-4.6100 festival -0.3620
-5.2951 festivals -0.3218
-5.1478 fetish -0.3639
-4.6504 fever -0.3080
-3.5667 few -0.2594
-4.5496 fewer -0.2348
-4.7942 fi -0.2416
-4.7919 fiber -0.3923
-5.3811 fibre -0.3594
-4.6935 fiction -0.3439
-3.9426 field -0.4196
-4.4120 fields -0.3845
-3.7132 fifteen -0.5460
-4.2464 fifth -0.3644
-3.3877 fifty -0.6709
-5.1287 fig -0.5447
-3.8562 fight -0.5558
-4.6545 fighter -0.4001
-4.6630 fighters -0.3361
-3.9156 fighting -0.5136
-3.9607 figure -0.5842
-4.4855 figured -0.5912
-4.2191 figures -0.4596
-5.5449 fiji -0.2119
-4.2354 file -0.4332
-4.3673 filed -0.7380
-4.3210 files -0.4694
-4.7760 filing -0.4463
-4.3710 fill -0.7275
-4.1010 filled -0.7625
-4.5658 filling -0.6491
-3.9117 film -0.3959
-4.3691 films -0.4418
-5.0007 filter -0.3417
-5.4885 filtering -0.2731
-5.2683 filters -0.3684
-5.0036 fin -0.2763
-3.9817 final -0.3465
-3.7804 finally -0.3842
-4.9819 finals -0.3313
-4.3680 finance -0.4028
-5.0037 finances -0.3112
-4.0113 financial -0.5445
-4.8506 financing -0.2968
-3.4663 find -0.4581
-5.6369 finder -0.2729
-4.1193 finding -0.4856
-4.8104 findings -0.4191
-4.1730 finds -0.5920
-3.8005 fine -0.3340
-4.9351 finest -0.1148
-4.4459 finger -0.4046
-5.4606 fingering -0.2502
-4.4261 fingers -0.3980
-4.2277 finish -0.5609
-4.1873 finished -0.4572
-4.7839 finishing -0.5641
-5.4682 finite -0.2285
-5.2162 finland -0.2192
-5.4160 finnish -0.1532
-3.6857 fire -0.4860
-4.1733 fired -0.5967
-5.3013 fireplace -0.2444
-4.3933 fires -0.4338
-5.4498 firewall -0.2648
-4.2061 firm -0.2971
-4.7288 firms -0.3485
-2.9834 first -0.3788
-4.7417 fiscal -0.4718
-4.1055 fish -0.3828
-4.7051 fisher -0.2502
-5.4809 fisheries -0.2469
-4.4780 fishing -0.4274
-4.9192 fist -0.3629
-4.1849 fit -0.6073
-5.0066 fitness -0.3560
-4.5998 fits -0.5846
-4.8250 fitted -0.5406
-4.8531 fitting -0.3134
-2.9979 five -0.5026
-4.3811 fix -0.6067
-4.3047 fixed -0.4705
-5.2333 fixes -0.3445
-5.4207 fixtures -0.2917
-4.4730 flag -0.3796
-4.8468 flags -0.3938
-4.7329 flame -0.3229
-4.5457 flash -0.4042
-6.0937 flashers -0.2341
-4.8892 flashing -0.3398
-4.2627 flat -0.4245
-4.8055 flavor -0.4283
-5.4793 fleece -0.2167
-4.6522 fleet -0.3396
-4.5652 flesh -0.4108
-5.3495 flex -0.3391
-4.9877 flexibility -0.4772
-4.9606 flexible -0.2446
-6.2789 flickr 0.0000
-4.0903 flight -0.5128
-4.6125 flights -0.5015
-4.7480 flip -0.5098
-4.7933 float -0.3937
-4.5404 floating -0.3912
-4.4526 flood -0.4279
-4.1172 floor -0.3826
-5.5227 flooring -0.2784
-4.8400 floors -0.3736
-5.4640 floppy -0.4344
-5.3675 floral -0.2635
-4.8006 florence -0.2804
-4.0652 florida -0.3170
-5.5388 florist -0.2061
-5.7504 florists -0.1663
-4.9596 flour -0.3574
-4.4382 flow -0.5107
-4.5811 flower -0.3313
-4.3138 flowers -0.3930
-4.8700 flows -0.4798
-4.9538 floyd -0.2596
-4.9016 flu -0.3416
-4.7508 fluid -0.3384
-4.8566 flush -0.4574
-5.3860 flux -0.3326
-4.1735 fly -0.5436
-5.2008 flyer -0.2432
-4.1260 flying -0.4533
-5.0056 foam -0.2496
-5.4413 focal -0.6040
-4.0905 focus -0.6181
-4.4783 focused -0.5492
-5.2243 focuses -0.5478
-4.7593 focusing -0.6352
-4.8465 fog -0.3051
-4.8058 fold -0.4303
-5.3290 folder -0.3069
-5.5472 folders -0.3312
-5.0692 folding -0.4029
-4.5743 folk -0.3729
-4.0136 folks -0.5363
-4.0035 follow -0.5968
-3.9740 followed -0.5825
-3.9774 following -0.4610
-4.5225 follows -0.4187
-5.4406 font -0.2627
-5.9307 fonts -0.1990
-5.3860 foo -0.3041
-3.7374 food -0.5280
-4.7041 foods -0.3732
-4.4234 fool -0.4044
-4.2142 foot -0.3278
-4.7625 footage -0.4170
-4.2430 football -0.4766
-5.3559 footwear -0.3546
-2.2283 for -0.5146
-4.4487 forbes -0.2934
-4.8995 forbidden -0.3877
-3.6870 force -0.4539
-4.1125 forced -0.6090
-3.8841 forces -0.4841
-4.3770 ford -0.3228
-4.8568 forecast -0.3209
-5.3272 forecasts -0.3138
-3.8189 foreign -0.5399
-4.4174 forest -0.2971
-5.5255 forestry -0.1948
-4.8305 forests -0.3589
-4.0326 forever -0.5199
-5.1417 forge -0.2921
-4.0153 forget -0.5563
-4.4917 forgot -0.6070
-4.5987 forgotten -0.3902
-4.9996 fork -0.3797
-3.8561 form -0.5667
-4.6301 formal -0.2252
-5.0572 format -0.3204
-4.8082 formation -0.4150
-5.7915 formats -0.2388
-4.3395 formed -0.4942
-3.7143 former -0.3345
-4.6353 formerly -0.2735
-4.6278 forming -0.4650
-4.2852 forms -0.5442
-4.6777 formula -0.4074
-4.5240 fort -0.4846
-4.2822 forth -0.4212
-4.5005 fortune -0.4026
-3.4335 forty -0.8005
-4.7884 forum -0.3206
-5.5871 forums -0.2905
-3.9093 forward -0.5210
-5.5436 forwarding -0.1935
-5.1376 fossil -0.3537
-4.3410 foster -0.3871
-4.2896 fought -0.6329
-4.7744 foul -0.3605
-3.4264 found -0.5338
-4.3341 foundation -0.4296
-5.1073 foundations -0.4157
-4.6366 founded -0.4950
-4.8543 founder -0.4442
-4.9044 fountain -0.3842
-3.0758 four -0.4737
-4.1286 fourth -0.3445
-4.4754 fox -0.2584
-5.1117 fraction -0.4518
-5.2107 fragrance -0.2773
-5.7923 fragrances -0.2208
-4.4736 frame -0.4019
-4.8619 framed -0.4338
-5.0043 frames -0.3425
-5.0169 framework -0.4937
-5.2579 framing -0.3581
-4.2126 france -0.3452
-4.9912 franchise -0.2637
-4.5760 francis -0.2424
-4.3983 francisco -0.2148
-3.8995 frank -0.3602
-5.3392 frankfurt -0.3004
-4.6087 franklin -0.3176
-5.2780 fraser -0.2519
-4.5152 fraud -0.4031
-4.2931 fred -0.3348
-4.8278 frederick -0.2466
-3.6927 free -0.4745
-4.1338 freedom -0.5635
-5.2053 freelance -0.2577
-4.6521 freely -0.3909
-4.6084 freeze -0.4146
-5.0069 freight -0.3711
-3.9639 french -0.2803
-5.0003 frequencies -0.4233
-4.7426 frequency -0.3946
-4.7585 frequent -0.2251
-4.4790 frequently -0.1631
-4.1867 fresh -0.3308
-3.9745 friday -0.5184
-5.2890 fridge -0.2409
-3.7959 friend -0.3426
-4.4379 friendly -0.2400
-3.7592 friends -0.5301
-4.5305 friendship -0.4002
-4.8938 frog -0.2391
-2.5276 from -0.4063
-3.8342 front -0.5179
-4.9891 frontier -0.2901
-4.8715 frost -0.2324
-4.5352 frozen -0.3046
-4.4362 fruit -0.4062
-4.8184 fruits -0.5560
-5.1259 fu -0.1736
-4.1461 fuck -0.4206
-4.8028 fucked -0.1142
-4.0749 fucking -0.2737
-4.3822 fuel -0.4081
-5.5346 fuji -0.2291
-5.9735 fujitsu -0.2694
-3.6630 full -0.4869
-4.2165 fully -0.4269
-4.1123 fun -0.4788
-4.5159 function -0.5248
-5.1549 functional -0.2028
-5.8784 functionality -0.1959
-4.9960 functioning -0.2830
-4.7380 functions -0.4410
-4.1273 fund -0.4108
-4.6183 fundamental -0.3310
-5.2957 fundamentals -0.3843
-4.8938 funded -0.3315
-4.5136 funding -0.4145
-5.3195 fundraising -0.2098
-4.2009 funds -0.4848
-4.4283 funeral -0.4211
-5.1947 funk -0.1910
-5.1626 funky -0.2117
-4.2490 funny -0.3850
-4.7183 fur -0.3575
-4.7992 furnished -0.4270
-5.5391 furnishings -0.2443
-4.5681 furniture -0.3535
-3.9072 further -0.3070
-5.1705 furthermore -0.1900
-5.0600 fusion -0.3038
-3.7680 future -0.3116
-5.0279 futures -0.3805
-5.0595 fuzzy -0.2000
-5.4748 g -0.2471
-4.9949 ga -0.1519
-4.7274 gabriel -0.1623
-5.3722 gadgets -0.3053
-5.2876 gage -0.2539
-4.3847 gain -0.4355
-4.4796 gained -0.5672
-4.5255 gains -0.4141
-5.0791 galaxy -0.2391
-4.9424 gale -0.2828
-5.2185 galleries -0.2724
-4.7487 gallery -0.3312
-4.5637 gambling -0.3391
-3.7479 game -0.5111
-4.1018 games -0.4968
-5.0843 gaming -0.2549
-5.0519 gamma -0.4915
-4.2910 gang -0.3955
-4.6902 gap -0.4102
-5.1991 gaps -0.5079
-4.7054 garage -0.3477
-4.5701 garbage -0.4078
-4.8006 garcia -0.2391
-4.3828 garden -0.3152
-5.1169 gardening -0.2449
-4.8092 gardens -0.3102
-5.0036 garlic -0.2975
-4.2104 gary -0.3954
-4.1140 gas -0.4453
-4.7623 gasoline -0.3766
-4.3532 gate -0.3997
-4.5426 gates -0.3074
-5.2049 gateway -0.3298
-4.5371 gather -0.4520
-4.4076 gathered -0.6223
-4.5083 gathering -0.4055
-5.0619 gauge -0.3070
-3.5584 gave -0.6943
-4.1021 gay -0.3713
-4.6872 gays -0.4116
-5.3013 gazette -0.2482
-4.5885 gear -0.3515
-5.0584 geek -0.2710
-4.9772 gel -0.3196
-5.2083 gem -0.3124
-5.0226 gen -0.2068
-4.7845 gender -0.3618
-4.3405 gene -0.3831
-5.6517 genealogy -0.2286
-3.5588 general -0.3073
-4.1597 generally -0.2249
-4.9153 generate -0.2783
-4.8576 generated -0.3264
-5.3007 generates -0.2326
-5.1559 generating -0.2181
-4.3066 generation -0.3636
-4.7057 generations -0.4215
-5.0429 generator -0.2859
-5.2187 generators -0.3037
-5.1807 generic -0.2056
-4.7182 generous -0.2567
-4.9192 genes -0.3776
-5.2503 genesis -0.2506
-4.5494 genetic -0.4362
-5.1388 genetics -0.2789
-4.8357 geneva -0.3040
-4.4141 genius -0.3985
-5.5742 genome -0.3533
-5.2659 genre -0.2837
-5.8751 genres -0.2274
-4.6748 gentle -0.1918
-4.4314 gentleman -0.3823
-4.5716 gently -0.2490
-4.7393 genuine -0.1388
-5.4711 geo -0.3708
-5.2933 geographic -0.2554
-5.3049 geographical -0.2386
-5.0593 geography -0.3204
-5.1972 geological -0.3817
-5.3755 geology -0.2536
-5.2059 geometry -0.3192
-3.7265 george -0.4827
-4.2818 georgia -0.3243
-4.7251 gerald -0.3308
-4.1648 german -0.2492
-4.2270 germany -0.3473
-2.8572 get -0.6294
-3.6203 gets -0.6435
-3.4584 getting -0.6143
-5.6753 ghana -0.1698
-4.5085 ghost -0.3357
-4.3811 giant -0.0884
-4.8612 giants -0.2581
-5.6219 gibraltar -0.2277
-4.9292 gibson -0.1965
-4.3592 gift -0.5174
-4.5395 gifts -0.5113
-4.8263 gig -0.3502
-4.8319 gilbert -0.2794
-3.7841 girl -0.4024
-4.4460 girlfriend -0.2594
-3.9550 girls -0.4383
-3.3187 give -0.6720
-3.7076 given -0.5548
-3.8923 gives -0.6683
-3.8587 giving -0.5524
-4.2411 glad -0.6621
-4.8341 glance -0.3390
-5.4266 glasgow -0.2232
-4.2742 glass -0.3660
-4.5906 glasses -0.4227
-4.7795 glen -0.2482
-4.6870 glenn -0.2614
-4.3504 global -0.3505
-4.8634 globe -0.2469
-4.6036 glory -0.4154
-5.8549 glossary -0.3139
-4.3769 gloves -0.4902
-4.7884 glow -0.5100
-5.4211 glucose -0.3435
-6.2702 gmbh -0.1759
-5.5467 gnome -0.1696
-6.1479 gnu -0.1054
-2.9364 go -0.7413
-4.3025 goal -0.5268
-4.5707 goals -0.5025
-4.8615 goat -0.2794
-3.7204 god -0.4758
-4.6772 gods -0.3219
-3.5702 goes -0.8308
-2.7612 going -1.0316
-4.0419 gold -0.4040
-4.3792 golden -0.3108
-4.3875 golf -0.4635
-3.6919 gone -0.6760
-3.8657 gonna -0.6030
-3.0161 good -0.5086
-4.4334 goods -0.4086
-5.2062 google -0.0675
-4.5020 gordon -0.2951
-4.5057 gore -0.2745
-4.7259 gorgeous -0.1929
-4.9965 gospel -0.3115
-4.6469 gossip -0.3867
-3.0446 got -0.5632
-5.2252 gothic -0.1956
-5.7636 goto -0.1631
-4.3650 gotta -0.5021
-4.2299 gotten -0.5356
-5.2296 gourmet -0.2667
-5.5618 governance -0.3339
-4.9370 governing -0.2534
-3.2562 government -0.4332
-5.0949 governmental -0.2505
-4.4573 governments -0.3712
-3.9104 governor -0.4135
-5.0526 gps -0.0336
-4.3303 grab -0.6499
-4.2134 grace -0.3638
-5.1725 grad -0.4073
-4.5373 grade -0.3300
-4.8882 grades -0.3450
-4.5744 gradually -0.2023
-4.7298 graduate -0.4820
-4.8827 graduated -0.4879
-5.0690 graduates -0.3372
-4.9756 graduation -0.3816
-4.5831 graham -0.2699
-4.7892 grain -0.3328
-5.0940 grammar -0.3781
-4.9853 grams -0.4370
-4.1483 grand -0.4074
-5.2076 grande -0.2395
-4.8902 granny -0.2938
-4.2625 grant -0.3445
-4.5215 granted -0.4279
-4.8384 grants -0.3603
-5.4407 graph -0.2181
-4.9249 graphic -0.3219
-6.0728 graphical -0.1738
-5.1814 graphics -0.2050
-5.6057 graphs -0.2658
-5.6576 gras -0.0803
-4.5111 grass -0.3622
-4.6997 grateful -0.4892
-5.4543 gratis -0.0942
-4.4659 grave -0.3534
-4.6781 gravity -0.3619
-4.3874 gray -0.2694
-3.3618 great -0.2634
-4.2428 greater -0.3242
-4.4277 greatest -0.1465
-4.5465 greatly -0.3727
-4.8904 greece -0.2826
-4.5876 greek -0.2675
-4.0008 green -0.3072
-5.0392 greene -0.2108
-5.2418 greenhouse -0.3987
-5.8222 greensboro -0.2837
-4.8471 greeting -0.4106
-5.0224 greetings -0.3627
-4.2582 greg -0.4302
-4.7407 gregory -0.2681
-5.4743 grenada -0.2816
-4.0998 grew -0.6681
-4.5929 grey -0.2492
-4.9157 grid -0.3375
-4.8165 griffin -0.2795
-5.0654 grill -0.2519
-4.7709 grip -0.4545
-4.8658 grocery -0.6285
-5.2793 groove -0.2728
-4.5925 gross -0.3107
-3.8819 ground -0.4357
-4.5355 grounds -0.5028
-5.8206 groundwater -0.1834
-3.6372 group -0.4695
-3.9740 groups -0.4822
-4.9486 grove -0.2697
-4.1466 grow -0.5580
-3.9716 growing -0.4263
-4.4113 grown -0.4593
-4.5283 grows -0.4644
-4.0174 growth -0.5269
-5.5481 guam -0.1811
-4.5478 guarantee -0.4630
-4.6910 guaranteed -0.3813
-4.8668 guarantees -0.3755
-4.2005 guard -0.3193
-4.8115 guardian -0.4040
-4.4881 guards -0.3090
-5.2148 guatemala -0.2590
-3.9002 guess -0.4636
-4.2953 guest -0.3934
-4.3183 guests -0.3747
-4.7750 guidance -0.4742
-4.4649 guide -0.3890
-4.8547 guided -0.5261
-4.7711 guidelines -0.3969
-4.9859 guides -0.3148
-5.2715 guild -0.2430
-4.1109 guilty -0.5944
-5.0418 guinea -0.3788
-4.7634 guitar -0.3395
-5.3486 guitars -0.2788
-4.3214 gulf -0.4554
-3.9848 gun -0.4179
-4.1068 guns -0.4794
-5.1644 guru -0.2526
-3.6406 guy -0.4574
-5.9015 guyana -0.1173
-3.7898 guys -0.4679
-4.7455 gym -0.2903
-5.5222 h -0.3151
-4.2171 ha -0.4890
-5.0160 habitat -0.3812
-4.6833 habits -0.3942
-4.9395 hack -0.2995
-5.2886 hacker -0.1509
-2.7053 had -0.7083
-3.9993 hair -0.4428
-5.0111 hairy -0.2533
-4.1941 haiti -0.3230
-3.5065 half -0.6064
-5.4607 halifax -0.2729
-4.1655 hall -0.3706
-4.7969 halloween -0.2794
-5.2183 halo -0.3318
-4.7032 ham -0.3556
-5.4728 hamburg -0.1983
-4.7498 hamilton -0.2539
-4.6411 hammer -0.3639
-4.4213 hampshire -0.1864
-5.1897 hampton -0.2462
-3.6560 hand -0.4355
-5.4948 handbags -0.3202
-5.2149 handbook -0.4144
-4.4102 handed -0.6639
-5.7720 handheld -0.1932
-4.2789 handle -0.3874
-4.5431 handled -0.4612
-4.8888 handles -0.2782
-4.4926 handling -0.4718
-5.4489 handmade -0.1513
-3.8406 hands -0.5462
-4.8606 handy -0.3300
-4.1217 hang -0.8351
-4.1828 hanging -0.7456
-4.8438 hans -0.2281
-5.0037 hansen -0.4224
-3.7598 happen -0.6851
-3.6577 happened -0.6682
-4.0992 happening -0.6258
-3.9519 happens -0.6944
-4.5329 happiness -0.4445
-3.8403 happy -0.4952
-4.6962 harassment -0.3819
-4.7620 harbor -0.2536
-3.5824 hard -0.5932
-5.2250 hardcore -0.1192
-5.9821 hardcover -0.2208
-4.3990 harder -0.6110
-4.2896 hardly -0.3317
-4.8472 hardware -0.3476
-5.4928 hardwood -0.4081
-5.0381 harley -0.2957
-4.5298 harm -0.5107
-5.0755 harmful -0.4019
-4.7537 harmony -0.4152
-4.5566 harold -0.2796
-4.7051 harper -0.3476
-4.4221 harris -0.3632
-4.7285 harrison -0.3059
-4.1280 harry -0.3742
-4.8697 hart -0.2314
-5.3429 hartford -0.2561
-4.6722 harvard -0.3688
-4.8377 harvest -0.2946
-4.6139 harvey -0.3148
-2.5763 has -0.9455
-5.1195 hash -0.4142
-4.3210 hat -0.3964
-4.2022 hate -0.3921
-4.7249 hats -0.3856
-2.3592 have -0.6653
-4.8532 haven -0.3238
-3.4662 having -0.5613
-4.8457 hawaii -0.2436
-5.1511 hawaiian -0.2152
-4.8555 hawk -0.2383
-4.8807 hay -0.3003
-4.8890 hayes -0.2879
-5.0395 hazard -0.3315
-5.0949 hazardous -0.3850
-5.3017 hazards -0.3955
-2.4103 he -0.9888
-3.6102 head -0.5166
-4.2631 headed -0.7139
-5.6918 header -0.2047
-6.3134 headers -0.0868
-4.3300 heading -0.7981
-4.9409 headline -0.2715
-4.7553 headlines -0.4124
-5.4425 headphones -0.2947
-4.3876 headquarters -0.4875
-4.1543 heads -0.5329
-5.6999 headset -0.2115
-4.6816 healing -0.3126
-3.5409 health -0.6133
-4.9732 healthcare -0.3304
-4.3398 healthy -0.2859
-3.7082 hear -0.4912
-3.6123 heard -0.5195
-3.8702 hearing -0.5901
-4.3530 hearings -0.4578
-3.8001 heart -0.5090
-4.4876 hearts -0.4208
-4.2354 heat -0.4281
-4.8649 heated -0.3319
-5.4711 heater -0.2617
-5.1183 heath -0.2079
-4.7600 heather -0.2593
-4.9368 heating -0.4367
-4.4419 heaven -0.4121
-4.4659 heavily -0.5128
-4.0657 heavy -0.3537
-5.0805 hebrew -0.2723
-4.9625 heel -0.3403
-4.6699 height -0.4365
-4.6985 heights -0.3666
-3.7997 held -0.6979
-4.4325 helen -0.2519
-4.8185 helena -0.2822
-4.6368 helicopter -0.2814
-4.1976 hell -0.4414
-3.7490 hello -0.4522
-4.8678 helmet -0.3037
-3.4174 help -0.5220
-3.9996 helped -0.4930
-4.6681 helpful -0.3769
-4.1694 helping -0.4800
-4.3206 helps -0.4552
-4.6980 hence -0.3142
-4.9029 henderson -0.2671
-4.0643 henry -0.3976
-5.3215 hepatitis -0.4408
-2.9439 her -0.3609
-5.0975 herald -0.3159
-4.8543 herb -0.2920
-5.2698 herbal -0.3479
-5.0156 herbs -0.3796
-2.7900 here -0.7597
-5.3523 hereby -0.2396
-5.3368 herein -0.2884
-4.8331 heritage -0.3826
-4.3525 hero -0.3198
-4.5594 heroes -0.4156
-3.9529 herself -0.5357
-5.6347 hewlett -0.4534
-3.6504 hey -0.4650
-3.7720 hi -0.5066
-4.3195 hidden -0.4236
-4.4063 hide -0.5680
-5.2463 hierarchy -0.3270
-3.4780 high -0.5467
-3.9869 higher -0.4580
-4.4905 highest -0.2956
-5.2459 highland -0.2694
-5.1958 highlight -0.3214
-5.3509 highlighted -0.2813
-5.0414 highlights -0.4261
-4.2991 highly -0.5567
-5.2834 highs -0.3346
-4.5081 highway -0.3691
-5.0121 highways -0.2976
-5.1457 hiking -0.3602
-3.9349 hill -0.3982
-4.4653 hills -0.3307
-5.1458 hilton -0.3007
-3.0117 him -0.5299
-3.5349 himself -0.5900
-5.0919 hindu -0.3130
-4.9097 hint -0.4484
-4.9887 hints -0.5145
-4.7606 hip -0.3126
-4.5589 hire -0.3928
-4.3431 hired -0.4549
-4.7538 hiring -0.3360
-2.6657 his -0.4179
-4.8945 hispanic -0.2826
-4.6096 historic -0.1818
-4.5972 historical -0.2751
-3.7370 history -0.5808
-3.6992 hit -0.5975
-6.0497 hitachi -0.1924
-4.3651 hits -0.4964
-4.4823 hitting -0.4905
-4.5388 ho -0.3170
-5.3035 hobbies -0.3424
-5.0887 hobby -0.3311
-4.6311 hockey -0.4193
-3.6906 hold -0.7053
-5.0142 holder -0.3022
-5.1793 holders -0.3408
-3.9833 holding -0.6317
-5.0333 holdings -0.3586
-4.3017 holds -0.6092
-4.3669 hole -0.4427
-4.5879 holes -0.4870
-4.3755 holiday -0.3500
-4.8089 holidays -0.3389
-4.8736 holland -0.2642
-4.8053 hollow -0.2287
-4.6588 holly -0.2756
-4.2529 hollywood -0.2889
-4.8216 holmes -0.2621
-4.9775 holocaust -0.3135
-4.3807 holy -0.4814
-3.3757 home -0.5538
-4.8486 homeland -0.4098
-4.5158 homeless -0.3740
-4.1290 homes -0.5155
-5.2144 hometown -0.2544
-4.8600 homework -0.3450
-4.6991 hon -0.4338
-5.2877 honda -0.1989
-5.5433 honduras -0.1798
-4.2657 honest -0.3596
-3.9827 honey -0.5374
-4.4472 hong -0.7873
-5.3994 honolulu -0.2389
-3.8866 honor -0.5055
-4.9631 honors -0.3005
-4.7193 hood -0.2924
-4.5973 hook -0.4506
-4.7521 hop -0.4047
-3.6540 hope -0.5797
-4.5457 hoped -0.6414
-4.4393 hopefully -0.3779
-4.2469 hopes -0.6138
-4.1950 hoping -0.8057
-4.8653 hopkins -0.3682
-4.9490 horizon -0.2735
-5.1577 horizontal -0.2519
-5.0724 hormone -0.2686
-4.6944 horn -0.2647
-5.0559 horny -0.2237
-4.4895 horrible -0.2373
-4.6176 horror -0.4835
-4.2299 horse -0.3213
-4.4084 horses -0.3515
-5.0499 hose -0.2833
-3.9728 hospital -0.3767
-4.9250 hospitality -0.3521
-4.4500 hospitals -0.4090
-4.4256 host -0.3386
-5.2123 hosted -0.4723
-5.4619 hostel -0.1956
-5.8581 hostels -0.1695
-5.1755 hosting -0.3659
-4.8652 hosts -0.2928
-3.9424 hot -0.4191
-4.0658 hotel -0.3843
-4.6817 hotels -0.3711
-5.0979 hottest -0.1787
-3.8189 hour -0.3742
-5.2293 hourly -0.3430
-3.7854 hours -0.5704
-3.1770 house -0.5417
-4.5891 household -0.3300
-5.1636 households -0.3033
-4.2120 houses -0.4465
-5.9351 housewares -0.2213
-5.3502 housewives -0.2539
-4.3152 housing -0.4014
-4.5661 houston -0.2773
-2.8912 how -0.7650
-4.2843 howard -0.3683
