
\data\
ngram 1=31


\1-grams:
-1.4017 </s> -0.4052
-99.0000 <s> -0.5741
-1.8605 a -0.5318
-2.5808 about -0.4794
-4.2215 advice -0.5503
-2.3840 are -0.6445
-2.4362 be -0.4866
-4.0345 crisis -0.4777
-3.4099 during -0.9232
-4.2277 finish -0.5609
-2.2283 for -0.5146
-4.3504 global -0.3505
-2.7612 going -1.0316
-3.5824 hard -0.5932
-3.7490 hello -0.4522
-2.8912 how -0.7650
-5.1587 innovative -0.1905
-2.2008 it -0.6899
-3.2153 man -0.4979
-2.8895 me -0.5349
-3.3468 must -0.9116
-4.0612 project -0.4362
-2.7675 right -0.6687
-3.2917 tell -0.7368
-3.5351 thanks -0.7250
-1.4847 the -0.0065
-3.6257 times -0.4780
-1.7519 to -0.5073
-2.3717 we -1.1079
-2.7334 well -0.6577
-2.1354 you -0.7758

